0.00824742 0.000206186 0.01 0.00298969 0.00701031 0.00958763 0.00680412 0.00350515 0.00927835 0.00484536 0.000824742 0.00237113 0.00670212 0.00268279 0.00907216 0.00783505 0.00752577 0.00762887 0.00927835 0.00123711 0.000103093 0.00515464 0.00628866 0.0056701 0.00701031 0.00175258 0.00319588 0.00505155 0.00515464 0.00907216 0.00525773 0.00319588 0.00443299 0.0049497 0.0012824 0.00119145 0.00959688 0.00804436 0.0100013 0.00856964 0.00809127 0.00601643 0.00080738 0.00996529 0.00385314 0.00488081 0.00733007 0.00635736 0.0022103 0.00146797 0.00755017 0.00762952 0.00164948 0.00350515 0.00835052 0.00876289 0.000309278 0.00123711 0.00886598 0.00557655 0.00536407 0.00381894 0.00429713 0.0103619 0.00410864 2.7187e-05 0.00604079 0.00842654 0.00307018 0.00551886 0.00655432 0.000549774 0.00656449 0.0022556 0.00562717 0.000131461 0.00274224 0.00834037 0.00150702 0.0100974 0.0096424 0.00904241 0.00247423 0.00649485 0.00762887 0.000515464 0.00494503 0.00806857 0.00713371 0.00881221 0.00894133 0.00160234 0.0068633 0.00164573 0.00106928 0.00582681 0.00119398 0.0068182 0.00424107 -0.000350318 0.00809798 0.00676758 0.00640116 -0.000570525 0.00368228 0.00211202 0.00554143 0.00716719 0.000264718 0.00736875 0.00213655 0.00525773 0.00628866 0.00463918 0.00143155 0.00371021 0.00510785 0.00114076 0.00614009 0.00124501 0.00429856 0.00412384 0.00788132 0.00639157 0.00429032 -0.00313968 0.00176648 0.00237932 0.00364275 0.00897274 0.00319966 0.00707185 0.00810043 0.00946834 0.00871265 0.00596883 0.00895792 0.00325328 0.00313723 0.00515272 0.000721649 0.000412371 0.00546229 0.00214356 0.00458026 -5.9858e-05 0.00322496 0.00254248 0.0041226 -0.00296312 -0.00423664 -0.00137896 0.00326745 -0.00272901 0.00152184 0.0117051 0.00809366 0.00453693 0.00885181 0.00444798 0.00539492 0.0111182 0.00819577 0.000955555 0.00487073 0.00141046 0.00836105 0.00597655 0.00525773 0.00659794 0.006144 0.00577059 0.00630839 -0.000386845 0.00573797 0.00465987 0.00567578 0.00149521 -0.00666381 0.00185619 0.00146946 0.00514142 -0.00433789 0.00310516 -0.00545847 0.0036703 0.00221977 -0.00154587 0.00272586 -0.00172349 0.00375912 0.00323167 0.000366828 0.0101533 0.00674937 0.00924711 0.000617733 0.000309864 -0.00016521 0.000407787 0.00171075 0.000628878 -0.000450633 0.00253887 0.00495249 -0.000564286 -0.00686064 7.67332e-05 -0.00167352 0.00343692 -0.00486221 -0.00080814 0.00228921 0.00253084 -0.00486407 -0.00508875 -0.00256302 0.00207169 0.00576755 0.000220819 0.00180593 0.0101139 0.00524084 0.00358575 0.00198557 0.0077905 0.00778726 0.00779702 0.00231964 0.000725984 0.00709992 -0.00138518 -0.000904364 -0.00747051 -0.00514912 -0.0051635 0.00195296 -0.00381874 0.000576222 -0.00105466 0.00773086 0.00443715 -0.00796735 -0.00669998 0.000165415 0.000440293 0.00760099 0.0112654 0.00589988 0.00935945 0.00358756 0.00949217 0.00566956 0.00909723 0.00802623 0.00740561 0.000402231 0.00335125 0.00364014 -0.00352883 0.000427299 -0.00393774 -0.00834596 0.00215848 0.00679562 -0.000564968 -0.0058543 -0.00392467 -0.00454703 -0.00379631 -0.00393192 0.00693889 -0.000739726 0.000117702 0.00902754 0.00750319 0.00566725 0.000843237 0.00986943 -0.000726978 0.00876289 0.00312738 0.00952392 0.00354722 0.00624128 0.00547728 0.00531821 0.00451798 0.00687441 -0.00485081 -0.00496926 -0.00261958 0.00111916 0.00303035 0.0039381 -0.00099526 -0.00681642 -0.0113047 -0.000739383 -0.000502836 0.0057376 0.00622303 0.013692 0.00840427 0.00755904 0.0036632 0.0018981 0.00681176 0.000515464 0.00677685 0.00198088 0.0084919 0.00785645 0.00494825 0.00927791 0.00510665 0.00582117 -0.0113109 -0.00289221 -0.00254368 0.00402008 -0.0010803 -0.00077442 0.000390122 -0.00948689 -0.00641346 0.00030499 -0.00423654 0.000148954 -0.00206503 0.00208645 0.0053861 0.0100815 0.00215118 0.0010813 0.00523051 0.000515464 0.00791511 0.00184826 0.000520215 0.00153221 0.0070857 0.00585849 0.00730534 -0.00228803 -0.0049414 -0.0115128 -0.00332532 0.00728706 0.00450591 0.00465936 -0.00108413 0.00164608 -0.00145669 -0.011908 -0.00655219 0.00181706 0.00417833 0.00761432 0.0142307 0.012457 0.00546209 0.0102873 0.00742514 0.00525773 0.000410799 0.00245559 0.00058967 0.00104885 0.00706068 -0.00162715 0.00205082 0.00104726 -0.00787569 -0.00993837 -0.00596036 0.00264364 0.0120907 0.00293556 0.000794033 -0.00679237 -0.00236001 -0.00259643 -0.00349413 0.0029615 0.00708487 0.00951291 0.00452423 0.00929189 0.00679939 0.00999775 0.0049773 0.000309278 0.0094835 0.00215914 0.000189136 0.00866221 0.00751678 -0.00354036 0.00285345 0.00188808 -0.000537338 -0.00564593 0.00633867 0.000358111 0.00120241 0.00504954 0.000643687 -0.00694097 0.00251322 -0.00134425 0.00318076 0.00617546 0.00790477 0.00239917 0.00897863 0.00237609 0.00549589 0.00016839 0.000103626 0.0056701 0.00473856 0.000198485 0.000243666 0.00307499 0.00607136 0.00622651 0.0038958 -0.00146725 0.000899879 0.00327327 0.00258911 -0.00315934 0.00163016 -0.00527117 -0.00182831 -0.00464838 -0.00328239 -0.00220878 0.00887529 -0.00110448 -0.00652752 -0.00431687 0.00313872 0.0106199 0.00506174 0.00119907 0.0060917 0.00371134 0.00649317 0.00129485 0.00863446 0.00152982 0.00244265 0.00604052 0.00446251 -0.00274387 -0.00391619 0.00303503 -0.00107934 0.00144398 0.000872648 -0.0025764 -0.000484559 -0.00545664 0.002315 -0.00366437 0.00263372 -0.00671347 -0.0106566 1.75101e-05 -0.00208647 0.00260707 0.00631535 0.00229654 0.000113747 0.00989691 0.00371074 0.00112514 0.00278009 0.00152897 0.00579427 0.0122746 0.00208202 0.00416499 0.00608204 0.00300207 -0.00142519 -0.00192011 0.00809877 -0.00418747 -0.00339439 -0.00530452 -0.00389213 -0.0111494 -0.00596833 -0.0118598 -0.00417839 -0.00479269 -0.000375605 0.00300154 0.000101256 0.00160314 0.00284888 0.0071132 0.0101031 0.00809009 0.00124444 0.00456344 0.0150413 0.00676202 0.00347024 -0.00279181 0.000554991 -0.00539001 -0.0011782 -0.00139294 0.00219401 0.00249255 -0.0112641 -0.0134179 -0.0121182 -0.00739987 -0.00506604 -0.00487509 -0.00291754 -0.000381013 0.00738439 0.00943017 0.00751066 0.00778356 0.00391132 0.00556701 0.00554847 0.00669904 0.00706775 0.00702357 0.0152527 0.0145812 -0.000841459 -0.00558367 -0.000861495 -0.00742203 -0.00916307 -0.00323475 -0.000959346 -0.00551122 -0.0102767 -0.00877279 -0.00730709 -0.00846756 -0.00498965 -0.00358522 0.00305611 0.00448384 0.00305687 0.00697455 0.00110198 0.00932859 0.00185136 0.00680412 0.0029908 0.00579996 0.00216514 0.00687722 0.00886559 0.0109281 0.00466706 0.00113161 -0.00641682 -0.00134252 -0.000951851 0.00548425 -0.000130939 -0.000611407 -0.010354 -0.00700095 -0.00735027 2.14779e-05 -0.00505124 -0.00108238 -0.000874153 0.000967522 0.00102057 0.0009522 0.00927246 0.00433522 0.00917526 0.00793616 0.00958701 0.00615478 0.00466704 0.00381949 -0.00121029 0.00863605 0.00955053 0.00316605 -0.00553584 -0.000260274 0.00308033 0.00353613 -0.000893896 -0.00442123 -0.0031342 -0.00586436 -0.00167856 -0.0122819 -0.0051116 -0.00694672 -0.00245455 0.00865548 0.00578384 -0.00328242 0.00270678 0.0101809 0.000618557 0.0082455 0.00999938 0.00489115 0.00628252 0.0102539 -0.00102048 0.00190986 0.00716575 0.00273289 0.00138071 -0.000802379 0.000895711 0.0108729 0.00632548 -0.0011681 -0.00277962 -0.00303151 -0.00461021 -0.00153088 0.00135363 0.00185464 -0.00246815 0.00528036 0.000285389 0.00649851 0.00139945 0.00554273 0.00463918 0.00443299 0.00546392 0.00530425 0.00779754 0.00408752 0.00201512 0.0052777 0.00440343 0.00811374 0.00482975 0.00165059 0.0062416 0.0084118 0.00738767 -0.00457283 0.00134645 -0.0051095 -0.00145389 0.00285796 0.00181345 0.00146607 0.00498527 0.00184693 0.00974863 0.00206307 0.00172512 0.00787399 0.00216495 0.00340206 0.00319588 0.00182532 0.00776137 0.00235141 0.00146455 -0.000328486 0.00606521 0.00581413 0.00837515 0.00895276 0.00600916 0.00559507 0.00298283 0.000520311 -0.000100009 0.00432107 -0.00337188 -0.0010262 0.00569619 0.00861977 0.00258088 0.00781604 0.000414643 0.00446403 0.00914468 0.000619416 0.00793814 0.00608247 0.00360825 0.00526027 0.00949685 0.0015615 0.00783094 0.00270543 0.00624916 0.00942717 0.00313738 0.0105195 0.00291614 0.00841221 0.00143283 0.00129796 0.00805109 -0.00101 0.00266067 0.00503252 0.00725388 0.00598092 0.00338426 -0.000425914 0.00701912 0.0091228 0.00443545 0.00288954 0.00835052 0.0085567 0.00896907 0.00608247 0.00432856 0.00230344 0.00174912 0.00435431 0.00933255 0.00307038 0.00610092 0.00529811 0.0024937 0.003803 0.00745814 0.00149213 -0.00164063 0.00585968 0.0027763 0.00387614 0.00775632 0.0090129 0.00131148 3.07783e-05 0.0015033 0.00710376 0.00154639 0.00371134 0.000824742 0.00103093 0.00670103 0.00917526 0.00463918 0.00536082 0 0.00906029 0.00262317 0.000952447 0.00764811 0.00184159 0.00428953 0.00311534 0.00173695 0.00142798 0.0018169 0.00105625 0.000503776 0.00176929 0.00797029 0.00392359 0.00638129 5.32534e-07 0.00848022 0.00917526 0.00175258 0.0102062 0.00103093 0.00865979 0.00371134 0.00721649 0.00969072 0.000103093 0.00113402 0.00412371 0.000515464 0.00123711 0.00824742 0.00319588 0.00762887 0.00564729 0.00520777 0.00701031 0.00391753 0.00721649 0.00876289 0.0057732 0.00835052 0.00443299 0.0028866 0.00113402 0.00360825 0.00969072 0.00195876 0.00195876 0.00360825 0.00907216 0.00731959 0.01 0.00752577 0.000721649 0.00195881 0.00194618 0.00599078 0.00237519 0.00110862 0.00669963 0.00431524 0.00441071 0.00985151 0.00755462 0.0110007 0.0108257 0.00383621 0.00909121 0.00705819 0.0075863 0.00995829 0.00015823 0.00174568 0.00257732 0.00670103 0.000412371 0.00731959 0.00865979 0.00783505 0.00597938 0.00257625 0.0048451 0.00567027 0.00953823 -0.000976161 0.000966411 0.00658412 0.0063982 0.00510824 0.00303877 0.00864695 0.00579929 0.00897653 0.00364633 0.00105169 0.00156573 0.00216053 0.00559796 0.0014128 0.00508694 0.00860963 0.00697095 0.00584569 0.00556701 0.00443299 0.00206186 0.00597938 0.00144319 0.00587154 0.00349848 0.00260563 0.0069478 0.00117755 -0.0001778 -0.00162903 0.000490049 0.00378188 0.00525209 0.00311244 -0.00499569 -0.0036301 0.0030435 0.00413554 0.00218039 -0.00383743 -0.00333127 0.00648631 -0.00127462 0.00389884 0.00561459 0.00612978 0.003327 0.00237113 0.00680412 0.00412371 0.00680374 0.00897069 0.0102486 0.00194735 0.00700815 0.00717914 0.00492025 0.0070003 0.00911679 0.0236409 0.0385402 0.0400672 0.0405105 0.0126997 0.00927167 -0.00958589 -0.0205379 -0.00335585 0.000235873 -0.00447078 0.00211074 0.00359942 -0.00285575 0.00558671 0.00872392 0.00656731 0.000309278 0.00670103 0.00907211 0.00710617 0.000286503 -0.00413709 -0.00386369 -0.00483925 -0.00566671 -0.00352255 -0.00516152 -0.00330314 0.0114032 0.00643355 0.0249198 0.045857 0.0234479 0.0144035 -0.00981416 -0.00877894 0.00659203 0.0027975 -0.00687371 -0.00447643 -0.00152771 0.00730904 0.00686505 0.00454487 0.00824742 0.00536082 0.00626024 0.00859182 0.00241677 -0.00507916 -0.015532 -0.0134253 -0.00771716 0.000358539 -0.002863 -0.0145357 0.00288396 0.0180087 0.0116696 0.0205043 0.0227293 0.0339826 0.0100717 0.000554964 -0.0227473 -0.0188371 -0.00100826 -0.00355544 -0.00421734 0.00876071 0.00143047 0.00753798 0.00350378 0.00661299 0.0022512 0.00126763 0.00475139 -0.00584933 -0.0203522 -0.00558385 0.0134043 0.00908873 0.00429531 0.0117845 0.00456501 -0.00555365 -0.0140497 0.00305674 0.0035091 0.0175962 0.0245856 -0.00445479 -0.0291231 -0.0322855 -0.00699148 -0.00391467 0.00885764 0.000775613 0.00150957 0.00863488 0.000845264 0.00282955 0.00576192 0.00250378 0.0104101 -0.0166984 -0.0231698 0.0045369 -8.10458e-05 0.0114814 0.0137941 -0.00010008 0.0195668 0.0101496 -0.0152888 -0.00665355 0.037309 0.0452549 0.0353057 0.01696 -0.0225461 -0.0325302 -0.00233091 -0.00116837 0.00909094 0.0111268 0.00615706 0.000952136 0.000514556 0.00453915 0.00435089 -0.000857672 0.00283954 -0.0170467 -0.0188219 0.0105795 0.00454441 -0.0105766 -0.0107822 -0.00659238 -0.00874661 -0.00162752 -0.0112004 0.00921914 0.0144969 0.0107319 0.0262008 0.0332823 -0.0017797 -0.00627984 -0.00312829 0.00093535 0.00206925 0.00841581 0.00901776 0.00306182 0.00639175 0.000289152 0.00470401 -0.000428926 -0.00400682 -0.0190008 -0.00928817 0.027254 0.00688996 -0.0131403 -0.0164634 -0.00878031 -0.00542383 -0.00117307 0.0291469 0.0110545 -0.0122498 -0.00727895 0.0174486 0.0194154 0.000796446 -0.00141507 -0.00249956 -0.00952103 -0.00955892 -0.00189268 0.00250225 0.00894347 0.00907216 0.00730333 0.00297319 -0.00234709 -0.00809839 -0.0285154 -0.0142711 0.0202072 0.00467507 -0.017563 -0.00803867 -0.00694433 -0.00882912 0.0287047 0.0331284 0.00953383 -0.00827022 -0.0122501 -0.013218 0.013642 -0.000630667 0.00394112 -0.0163184 -0.0159522 -0.000350999 0.00326907 0.0024994 0.00449654 0.00773196 0.00829313 0.00842678 0.00372374 -0.0148278 -0.022526 -0.0213338 -0.00622528 -0.0183134 -0.00907796 -0.0027465 0.00572074 0.00955014 0.0235795 0.012274 0.0167716 0.0130199 0.00343304 -0.00860781 -0.00996221 -0.0105018 0.00431017 -0.011417 -0.00892151 0.00364852 0.0114758 0.00356352 0.0100819 0.00494845 0.00832386 0.00413968 0.000537325 -0.0114193 -0.0141744 -0.0250508 -0.0188681 -0.0103822 -0.0146827 -0.00996531 0.0175439 0.0127317 0.0146712 -0.0095741 0.00667785 0.00736678 -0.000975052 -0.00714295 -0.00121606 0.0010884 -0.0174002 -0.00991248 -0.000905051 0.0113118 0.00628886 0.00987496 0.00477546 0.00886598 0.00047524 0.00438925 0.00680449 -0.0115955 -0.00885359 -0.0107829 0.0106657 0.000825285 0.0114408 0.0281978 0.0407717 0.0206297 -0.0155964 -0.0270636 -0.0212697 -0.0233126 -0.0105312 0.00798325 -0.000964178 0.000627731 -0.00804459 -0.0127339 -0.00175856 0.0100034 0.00889186 0.00298647 0.00567549 0.00783505 0.00941292 0.00518663 0.00429247 -0.00756356 -0.00541921 0.00776372 0.034432 0.0338917 0.0286073 0.0269271 0.0123901 -0.0135954 -0.0185268 -0.00553159 -0.0129174 -0.0174555 -0.0227854 -0.00807118 -0.00287292 -0.00540382 -0.00852721 0.00473292 -0.0012126 0.0164863 0.010373 0.0115668 0.000565996 0.00474227 0.000896074 5.39915e-05 -0.00125212 0.000490074 -0.00147305 0.0213031 0.0335546 0.0177601 0.0369836 0.0315998 -0.00485202 -0.0179202 -0.0098946 -0.00931229 -0.00517283 -0.0113571 -0.0200067 -0.0351619 -0.0137377 -0.00427915 0.00356771 0.00804438 0.0199578 0.0126857 0.00774262 0.00239181 0.00893985 0.00814433 0.00503994 0.00256145 0.00515221 0.00378601 0.0111706 0.0244527 0.0130349 0.0407616 0.04347 0.00132333 -0.0124263 -0.03248 -0.0205901 -0.0117008 -0.0160264 -0.0176878 -0.0331425 -0.0244886 -0.0175697 -0.0175336 0.00727543 0.00331979 0.0353012 0.0290164 0.00644805 0.00406023 0.00564701 0.00123703 0.00845361 0.0079013 0.00686617 0.0139295 0.0272461 0.0230112 0.0288995 0.0361149 0.0141289 -0.0385572 -0.0470191 -0.0445482 -0.0262183 -0.0151873 -0.0212969 -0.038637 -0.0353033 -0.0177219 -0.0261134 -0.0094631 0.00430261 0.00656275 0.0440855 0.0234502 -0.0004985 -0.0010619 0.00743293 0.00474227 0.0084956 0.000946587 0.00261823 0.0112668 0.0177645 0.0134499 0.0215952 0.0321386 -0.00133902 -0.0403298 -0.0609281 -0.0453203 -0.0228597 -0.0190749 -0.0199507 -0.0320898 -0.0175463 -0.00889797 -0.00949257 -0.00663019 0.0170948 0.0260641 0.0288792 -0.00713757 0.00066246 0.00713733 0.00928032 0.00948454 0.00288615 0.00606635 0.00368232 0.00547005 0.00332658 0.00887079 0.0297231 0.028973 -0.00169045 -0.0256005 -0.0470966 -0.0307494 -0.0301439 -0.013715 -0.00292998 0.00205332 -0.00365046 -0.00766851 -0.0105108 0.00180143 0.00926463 0.0168041 0.0147291 -0.0114649 -0.00209367 0.00150191 0.0102062 0.00988535 0.00515103 0.00487277 0.0101085 0.0138219 -0.00454453 0.0150682 0.0249083 0.0205712 0.0242734 0.00292589 -0.0230854 -0.0374944 -0.0290981 -0.0137374 -0.0223629 -0.00915627 0.00920458 -0.0156688 -0.0251694 -0.0068293 -0.0105264 0.0143529 0.00315384 -0.0204928 0.00384388 0.00479864 0.00505155 0.00679293 0.00226443 0.000262407 0.00312683 0.0126898 -0.00251629 0.00253991 0.0102075 -0.0164345 0.0288421 0.0425903 0.0190354 0.000343363 -0.0264707 -0.0359709 -0.0264017 -0.0145347 -0.0195988 -0.027665 -0.0094773 0.00257793 -0.000445537 0.00130833 0.0018825 -0.000406191 -0.00326416 0.00228299 0.00505155 0.00835052 0.0028866 0.00522839 0.0109809 0.00787186 -0.00125834 -0.0120253 -0.00228781 0.00755137 0.0151557 0.0160634 0.0231967 0.0187444 0.00460067 -0.0129134 -0.0193913 -0.0146204 -0.0191113 -0.0109689 -0.00808758 -0.0042496 0.0070782 0.00758919 0.00714371 -0.00425785 0.00724882 0.0066246 0.0101031 0.00164948 0.00484536 -6.07085e-05 0.00505041 0.00622115 0.0052147 0.00558975 0.00586309 0.00671947 1.88527e-05 0.00113052 0.0133769 0.0116542 0.00235918 -0.0120451 -0.018273 -0.0031702 -0.00745888 -0.00884027 -0.000363163 0.00389447 0.00352117 0.00508167 0.00365689 0.00336171 0.008056 0.00797092 0.00474227 0.00721649 0.00463918 0.00989813 0.00391511 0.00286304 0.00507117 0.00425628 -0.00131324 0.0053922 0.00383898 -0.00564252 -0.00199326 0.00327281 -0.004017 0.00132934 0.0157684 0.00600427 0.000934636 -0.00322563 0.00278147 0.00462508 -0.000866638 0.0057719 0.00827622 0.0100175 0.00220017 0.00334107 0.00309278 0.00989691 0.00103093 0.0028866 0.0018522 0.000625138 0.000427738 0.00342607 -0.0014151 -0.00102175 0.00556381 -0.0025601 0.00350809 -0.00110233 -0.00166837 -0.00153294 0.00490006 0.000557288 0.00355109 0.00410409 0.00570848 0.000757704 0.000721099 0.00344713 0.00150809 0.00487872 0.00505155 0 0.00474227 0.00226804 0.00865979 0.0028866 0.00721649 0.00474227 0.0057732 0.00416008 0.000257262 0.00790566 0.00503173 0.000527512 0.00523234 0.00383705 0.00815794 0.0022916 0.00334872 0.00137348 -4.85707e-05 0.00729268 0.0099895 0.0077573 -0.00161078 0.00413452 0.00584019 0.00412371 0.00226804 0.00298969 0.00917526 0.00237113 0.00835052 0.00360825 0.0101031 0.00185567 0.00649485 0.00701031 0.00659794 0.00731959 0.00628866 0.00226804 0.00525773 0.00112915 0.00875221 0.000515464 0.00597938 0.00742268 0.00845361 0.00453608 0.00402062 0.00865979 0.00195876 0.00381443 0.00185567 0.00195876 0.00546392 0.00814433 0.00123711 0.00278351 0.00618557 0.000103093 0.000309278 0.0043299 0.00907339 0.00550585 0.00624637 0.000327774 0.00752464 0.00781695 0.00765735 0.00376768 0.00531417 0.00259878 0.0048635 0.00382 0.00851894 0.00576159 0.00624041 0.00674425 0.000146564 4.7934e-05 0.000103828 0.00742268 0.00917526 0.00195876 0.00948454 0.00979381 0.00515464 0.0057732 0.00769963 0.00115873 0.00588073 0.0030092 0.00016092 0.00474123 0.00836504 0.00576128 -0.00151537 0.00472815 0.00827638 0.00643765 0.00834658 0.00890388 0.00456611 0.00862628 0.0025905 0.00818076 0.00430189 0.00445495 0.00029191 0.0100771 0.00992147 0.000412371 0.00731959 0.00391753 0.00783505 0.0015433 0.0036042 0.00276946 0.0069072 0.00563033 0.00231215 0.00142243 0.000491373 0.00018852 -0.00243255 -0.00101898 0.00151248 -0.00337003 -0.00351688 -0.00552807 0.00331851 0.00767116 0.000169628 0.000964868 0.00657852 0.00847992 0.00355949 0.00559558 0.00335851 0.00446344 0.00628866 0.0028866 0.00494845 0.00339145 0.00680615 0.00238327 0.003644 0.00313696 -0.00429677 0.00195866 0.00157451 -0.00429916 -0.00749831 -0.00816616 -0.00521818 3.58904e-05 0.000475076 0.00161274 0.000487655 -0.00859906 -0.00729094 -0.00907973 -0.00317051 -0.0041358 0.00157696 0.00718688 0.0111069 0.00121836 0.00167708 0.00762887 0.0102062 0.00834904 0.0054295 0.00946766 0.00463787 -0.00226791 -0.0012292 -0.00205948 -0.00740905 -0.0227834 -0.00843822 -0.0110163 -0.0103893 -0.00465531 -0.0101696 -0.0127998 0.00349961 -0.00714744 -0.0221789 -0.00461807 -0.00651663 -0.012288 -0.00415586 0.00399405 -0.000123637 0.00924717 0.0092749 0 0.00536082 0.00185545 0.00753129 0.00428024 0.000763763 -0.00776254 -0.011092 -0.0235521 -0.0171112 -0.0166822 0.00129756 0.00208057 0.00717271 0.0235173 -0.0115768 -0.0212225 -0.0221343 -0.0321927 -0.0150714 -0.0152511 -0.0230315 -0.0194583 -0.012271 -0.00220194 -0.00272534 0.00528567 0.00191941 0.000309891 0.00935897 0.0033179 0.000207177 0.00185658 -0.00249634 -0.0102042 -0.0107937 -0.0220722 -0.00470813 0.00980608 -0.00393574 -0.0215021 -0.0202754 -0.0155469 -0.0191453 -0.0247048 -0.0475266 -0.0688873 -0.0756815 -0.053645 -0.0291995 -0.0299407 -0.00800867 -0.000407082 0.0113769 -0.00584974 0.0014955 0.0081341 0.00611888 0.000589184 0.00812542 0.00249119 0.000201212 -0.012065 -0.0184338 -0.0276032 -0.0153413 -0.00684718 -0.0317098 -0.0129895 -0.0267702 -0.0348111 -0.0196333 -0.00284773 -0.00400471 -0.0167649 -0.0138462 -0.000119273 0.00260168 -0.00345631 0.0153877 0.0324672 0.015051 -0.0119348 0.00529099 0.00556741 0.0084755 0.00758819 0.00847829 0.00444248 -0.000117231 -0.0108412 -0.00715237 -0.0143838 -0.0143786 -0.0101479 -0.00948824 -0.00393183 0.00623196 0.012775 0.0103074 0.0286951 0.06204 0.0606177 0.0411543 0.0437517 0.0336112 0.0259904 0.0381753 0.0478343 0.0244633 0.00206754 0.000605178 0.00701031 0.00582839 0.00735521 0.00921376 0.0105842 0.00885126 -0.00531295 -0.00904536 -0.000221641 0.00704885 0.0134019 0.0256355 0.0213133 0.0382363 0.0268888 0.0446134 0.0447195 0.0604865 0.095396 0.0963879 0.0710914 0.0426683 0.0179182 0.0275478 0.0422501 0.0176529 0.018593 0.0104419 0.00505155 0.00164352 0.00951844 0.0115823 0.00943297 0.00406449 -0.00297594 -0.019195 -0.00459751 0.00891197 0.0232637 0.040853 0.0274601 0.021305 -0.0187643 -0.010833 -0.0292526 -0.0202069 0.0249535 0.0345362 0.0124888 0.00310687 0.00689754 0.0176554 0.0196102 0.0145022 0.0093839 0.0043252 0.000103093 0.00480911 0.00886068 0.00572431 0.000580605 -0.00655765 0.00178854 0.00698862 -0.00230847 0.0151665 0.0101752 0.0197494 0.0160929 0.019156 -0.00409554 -0.0209073 -0.0371198 -0.0413196 -0.0291248 -0.0289698 -0.0171821 -0.0187402 -0.00398266 -0.0170488 0.00194507 0.0176806 0.00727679 0.00647551 0.00762887 0.00475849 0.00419075 0.00606661 -0.0133433 -0.00333862 -0.00228726 0.0108731 0.00419066 -0.00842255 0.000364596 0.0230233 0.021497 0.00294256 -0.00617572 0.00312427 0.0142912 -0.0327459 -0.0470446 -0.0404885 -0.026718 -0.00890509 -0.0154077 -0.0159937 -0.00341948 0.0110536 0.00410914 0.00422299 0.00103093 0.00652651 0.00346906 0.005352 -0.00255836 0.00137893 -0.00221939 -0.00306832 -0.0098436 0.0133901 0.0203581 0.00399492 -0.00490508 -0.0178178 0.0049723 0.00334018 0.00331646 0.0025983 -0.0151875 -0.0303063 -0.0382259 -0.0277521 -0.0206983 -0.0174079 0.0010597 0.00493867 0.00438882 0.00154521 0.00237113 0.00841923 0.0058197 0.00147096 0.00487681 0.00234069 0.0207862 0.00151116 0.00706433 0.0138873 -0.00975056 0.00651225 -0.00976327 -0.0191099 -0.0104214 -0.0113766 -0.00837872 0.01595 0.012479 0.0027352 -0.0358594 -0.0294862 -0.017907 -0.00367468 -0.00954551 0.00471271 0.00190813 0.00471749 0.00721649 0.00884692 0.00669183 0.00824999 -0.000154115 0.00673113 0.010429 0.00365142 0.00104277 -0.00488232 0.0146834 -0.0146524 -0.0193756 -0.00908365 -0.00716837 -0.0194396 -0.0340619 -0.00782491 0.0367347 0.0175213 -0.0253781 -0.0292909 -0.00788489 -0.00706585 -0.00534596 0.00167567 0.00521355 0.00312953 0.00979381 0.00999422 0.00293245 0.00422266 -0.00670738 0.00435424 0.00851647 0.0131989 -0.0124167 -0.0067534 0.0101423 -0.00581204 -0.0188074 -0.00843075 0.00837841 0.00864191 -0.0292941 -0.00960019 0.0151246 0.00148109 -0.00531491 -0.0218805 -0.00973903 -0.00939902 -0.0109893 -2.4376e-05 -0.00024296 0.0065268 0.0045477 0.0014433 0.00978692 -0.00255973 -0.0128504 -0.00167762 -0.00137811 0.0107211 -0.0148135 -0.0195769 -0.038136 -0.0243461 -0.010389 -0.00584109 0.00105373 -0.0136407 -0.00720135 -0.00623596 -0.00857538 0.00356629 -0.00104761 -0.0177731 -0.0131827 -0.0100643 -0.00980366 -0.00155313 0.00899023 0.00771295 0.00206186 0.00481934 0.00536792 -0.00128913 -0.00285919 -0.00296856 -0.0117888 -0.0150473 -0.0182428 -0.0376518 -0.0391462 -0.0375461 -0.00880715 -0.00631048 -0.0412084 -0.0201654 -0.015551 -0.0255362 -0.0138437 0.00968982 0.00286412 -0.0150165 -0.0145004 -0.00294041 0.00304928 -0.00129958 0.000226156 0.00855067 0.00463918 0.00465194 0.00548474 -0.000298101 -0.000122002 -0.0159299 -0.0123022 -0.00880739 -0.02578 -0.0323121 -0.0394561 -0.0247781 -0.0121089 -0.0247466 -0.0472798 -0.0234904 -0.0230084 -0.0174314 -0.00401985 0.0115881 0.00574809 -0.02001 -0.0037058 -0.00153667 0.00677777 0.00913209 0.0098136 0.00103093 0.000412559 0.00567016 0.00868944 -0.00793093 -0.00795705 -0.0118215 -0.019151 -0.00743307 -0.0286755 -0.0181756 -0.0306615 -0.0105867 -0.0167646 -0.0150746 -0.0128508 -0.0160694 -0.0146372 -0.0079899 0.00546869 0.011054 0.00920362 -0.000127411 -0.00709774 -0.00377594 0.00779425 0.00791168 0.00866783 0.00103093 0.0069074 0.00835057 0.00188863 -0.000683453 -0.00495723 -0.00131536 -0.00927769 -0.00953791 -0.0168943 0.00740154 -0.00511076 0.00993815 0.0119699 -0.00851642 -0.0192235 0.00289848 0.00952275 0.00919924 0.00192596 0.0045196 0.00871264 0.00940228 0.00311651 0.00810088 0.00371348 0.00665887 0.00497014 0.0057732 0.00371134 0.00309278 0.00180904 0.00585716 0.00548052 0.00923018 0.00518462 -0.00459864 0.0166449 0.0306058 0.0263649 0.0230159 0.0321486 0.0126629 0.0116954 0.0120351 0.00661934 -0.000289156 -0.00607939 0.00647606 0.0113353 0.00207571 0.00576595 -0.000980929 0.00777741 0.00539786 0.00606523 0.00721649 0.00628866 0.0057732 0.00810854 0.00517997 0.00750042 -0.00203769 -0.00885048 -0.000872663 0.0200148 0.0219787 0.0386011 0.0284236 0.019951 0.00452391 0.0250108 0.00869748 7.26226e-06 0.0107418 0.00439921 0.013007 0.0102749 0.0114055 0.000548471 -0.000366244 0.00887424 -0.000269017 0.00758107 0.00237113 0.000103093 0.00329897 0.00463663 0.0065015 0.00691593 0.000352919 -0.00895957 -0.0221124 -0.0169289 -0.0177479 6.84347e-05 0.00179358 -0.00176231 0.0128483 -0.00259073 0.00819265 0.00293755 0.00700496 0.00186837 0.0129108 0.0124684 0.00429135 0.00724112 0.00722533 0.00977302 0.00728955 0.00315997 0.0071134 0.00247423 0.000515464 0.00463918 0.00257748 0.00922615 0.00777099 0.00268601 -0.0039836 0.0045 0.00116731 -0.000264356 -0.00232785 0.0123326 0.00469529 -0.00778152 0.00647787 0.0096951 -0.00207543 -0.00131577 0.0169354 0.0149923 0.00869322 0.0120523 0.00260759 0.000723873 0.0101031 0.00484536 0.00958763 0.00216495 0.00804124 0.0014433 0.00463918 0.0085567 0.00608247 0.00754588 0.00928883 0.00232455 0.00223988 0.00462822 0.00838815 0.00569435 0.000309202 0.00195265 0.0095036 0.00920856 0.00291729 0.0100584 0.00142606 0.00922631 0.00364939 0.0115099 0.00811628 0.00824742 0.00206186 0.00494845 0.00896907 0.00721649 0.00979381 0.00329897 0.00938144 0.00752577 0.0101031 0.00371134 0.000824742 0.00103093 0.000618557 0.00329897 0.00123711 0.00174818 0.00875327 0.00329897 0.00350515 0.00958763 0.00969072 0.00814433 0.00402062 0.0014433 0.00628866 0.00587629 0.00103093 0.00927835 0.00927835 0.00350515 0.00226804 0.00639175 0.00845361 0.00628866 0.00329897 0.00298969 0.00958721 0.00234944 0.00553481 0.00440443 0.00607796 0.00144516 0.00550591 0.00187913 0.00470399 0.00661596 0.00888825 0.00324538 0.0100155 0.00748774 0.00775823 0.00438445 0.00532426 0.00160955 0.00586968 0.0014433 0.00257732 0.00195876 0.0057732 0.00164948 0.00556701 0.00804124 0.0080613 0.00907931 0.00401912 0.0061309 0.00681299 0.00258978 0.00750263 0.00090491 0.00596425 0.00911605 0.00193921 0.00609555 0.00624949 0.00212908 0.00196626 0.00446376 0.00170558 0.00983515 0.00291809 0.00981596 0.00396832 0.00342285 0.00135392 0.01 0.00484536 0.00402062 0.00701031 0.000308125 0.000775734 0.00224034 0.0074148 0.00239647 0.00430553 0.00452282 -0.00431892 -2.67167e-05 0.000897732 0.000172782 0.00735135 0.0116738 0.0117088 0.00310611 0.00155033 -0.000810952 -0.000950958 -0.00265561 -0.000886079 0.00472615 -7.13701e-05 0.00936035 0.00560507 0.0101691 0.00278351 0.00226804 0.00494845 0.00267646 0.00133031 0.00136228 0.00684573 -9.45399e-05 -0.000706396 -0.00530784 -0.00626371 -0.0104964 0.00609855 0.00549387 0.0214155 0.0134293 0.00630733 0.00788445 0.00629986 0.00933701 -0.00276523 -0.00102572 -0.00402775 0.00100177 0.00201003 -0.000196416 0.00934692 0.00655739 0.00587844 0.00515464 0.00154639 0.00371079 0.00244135 0.00386512 0.000878056 -0.00265519 -0.00111408 -0.00279633 -0.00919517 -0.00559738 0.0101798 0.0138358 0.00767083 -0.00142686 0.000682172 0.00695721 0.0185949 0.0127242 -0.000499008 0.00488682 0.00502959 -0.000747119 -0.000343258 0.0053508 0.00353824 0.00770192 0.00845679 0.00350515 0.00948454 0.00900455 0.0036809 -0.00315889 -0.00306623 -0.00220205 -0.00163409 -0.0121111 -0.011514 -0.00881297 0.00626397 0.0017045 -0.008345 0.0105921 0.00750273 0.012828 0.0182556 0.00935675 0.00562443 0.00191094 -0.00258912 0.00128843 -0.00176113 -0.00304335 0.00637477 0.00849627 0.00877223 0.00711323 0.00637585 0.00192902 0.000439023 0.00211698 -0.000184913 0.00334741 -0.00937493 -0.0113768 -0.0182928 -0.00825002 -0.00793609 -0.0157781 -0.00301358 0.00173038 -0.00700727 0.00137776 0.00958308 0.0205945 0.00977856 -0.00395858 -0.00428325 0.00672451 -0.00583644 -0.00662725 -0.00218422 0.00791393 0.00690421 0.00329299 0.00226803 0.000486369 -0.000900089 0.00550512 0.00552174 -0.0045075 -0.00771131 -0.0105722 -0.0138677 0.000829967 -0.0031311 -0.0141948 -0.0117044 -0.00482145 -0.0147678 -0.00128302 0.00995197 0.0264598 0.0410902 0.017951 0.0108797 0.00540676 0.000880341 -0.00569411 0.00251317 0.00406402 0.00947553 0.00536071 0.00832309 0.00599525 0.00695284 -0.00191803 0.0033064 0.00836809 -0.00892746 0.00130541 0.0108033 0.0071362 -0.0147329 -0.0125458 -0.0112075 -0.00442768 -0.0111452 -0.01059 -0.0215982 0.00559077 0.0394345 0.0396569 0.0244447 0.00817139 0.00389249 -0.00250367 0.000307077 0.00552162 0.00192001 0.0085567 0.00618477 0.00655346 0.00891256 0.00324852 0.0156846 0.0119806 0.00708143 0.0184355 0.016758 -0.00728017 0.00230098 -0.00526783 -0.0100788 -0.0148732 -0.0172395 -0.0215398 -0.0111593 -0.0155216 -0.00605317 0.011538 0.0321739 0.0241553 0.0151888 -0.00719701 0.00340229 0.000324602 3.47147e-05 0 0.00330431 0.00742394 0.00964512 0.0173319 0.0223363 0.0126607 0.0166947 0.0137068 0.00692704 0.00273365 -0.00441889 -0.00367795 -0.0146215 -0.0271762 -0.0292976 -0.0189445 -0.0283469 -0.0268847 -0.01657 0.0125349 0.028087 0.0358016 0.0163949 0.00756215 0.00548083 0.00406491 0.00710026 0.00969072 0.00144286 0.00698898 0.0108757 0.025655 0.0214502 0.0182156 0.0121802 -0.00314741 -0.0164622 -0.0102731 -0.0030035 -0.0245487 -0.0222536 -0.0138438 -0.0223875 -0.0205386 -0.0261146 -0.0442969 -0.0239709 -0.0102153 0.0154318 0.0292551 0.0233913 0.00166797 0.00833386 0.000814085 0.00641217 0.00226804 0.0058594 0.00255496 0.00174378 0.0350934 0.0245403 0.0158814 -0.000922107 -0.00710466 -0.00657701 -0.00274835 -0.0130094 -0.015858 -0.0127464 0.00592685 -0.00119295 -0.00989525 -0.0270099 -0.0337839 -0.0273005 -0.00518523 0.0261222 0.0218579 0.00410549 0.00779797 0.00638579 0.00022421 0.00536492 0.00608247 0.00132539 0.00595528 0.00371942 0.0216217 0.0302409 0.00183928 0.00273947 -0.00547169 0.00990022 0.00650791 -0.00761897 0.006816 0.00540478 0.0191721 0.00620313 -0.0115454 -0.0446407 -0.0407068 -0.0140748 0.0143461 0.0281637 0.0209685 -0.0123307 -0.00409511 0.000867085 0.00354559 0.0011347 0.00845361 0.00360433 -0.000631799 0.00801988 0.0120619 0.0202427 -0.000525057 -0.00965466 0.00179426 0.00546634 -0.00186395 -0.00011371 0.000245444 0.00761966 0.00737078 -0.00430111 -0.0343568 -0.0439988 -0.0281415 0.00414179 0.0291621 0.0308168 -0.00326497 -0.0108922 -0.000767314 0.00748347 0.00458149 0.0001983 0.00670103 0.00793447 0.0046049 0.00647797 0.00486386 0.00969339 -0.00139373 -0.0110156 -0.015683 -0.0104951 0.00952128 0.00541274 -0.00217884 -0.00938767 -0.0124399 -0.0295145 -0.0543435 -0.0398544 -0.00501304 0.00451437 0.0391369 0.0201229 0.00333159 -0.00591675 -0.0065057 0.00568729 0.00799684 0.00895752 0.00154639 0.00195802 0.00266742 0.00522416 0.00501875 -0.0239644 -0.00799475 -0.00644022 -0.0143384 -0.0142261 0.00622919 -0.00109171 -0.00395359 -0.0112976 -0.0229854 -0.0320085 -0.0326627 -0.0041877 0.0141417 0.0223287 0.026806 0.000780396 -0.00310625 -0.00755957 0.00127229 0.0109914 0.00512837 0.00712124 0.00598362 0.00216495 -0.000373904 0.00424342 -0.000141593 -0.0210754 -0.0138279 -0.000712874 0.000294631 0.0103907 0.0120853 -0.00348381 -0.00827476 -0.0155479 -0.0275492 -0.0367301 -0.0165277 0.0215828 0.0149831 0.0211822 0.00646735 -0.001148 -0.00127442 -0.0100585 0.00238894 0.00653329 0.00615087 0.00331089 0.000206186 0.000611059 0.00505189 0.00217506 -0.00526201 -0.000718591 -0.00390277 -0.00813546 0.00388307 0.0250566 0.0177077 0.00537286 -0.00248312 -0.0230337 -0.025721 -0.00807313 0.00448412 0.0242223 0.0160089 0.00826267 -0.0124214 -0.0134788 -0.00831445 -0.0077958 0.00286648 0.00476306 0.00292955 0.00597967 0.000721649 0.00392963 0.00432959 -0.000962654 -0.00097042 0.0110393 -0.00165621 -0.0213892 0.000429815 0.00281179 -0.00641862 -0.012793 -0.0184144 -0.0149395 -0.011981 0.00909909 0.0139513 0.0216782 0.0116649 -0.00835244 -0.0231727 -0.0205811 -0.00684917 -0.00169066 -0.00187709 0.00426132 0.00336709 0.00969072 0.0094842 0.00113392 0.000570537 0.00780377 -0.00121474 0.00120309 -0.00430602 -0.0115789 0.00403854 0.00501661 -0.0033406 -0.0142812 0.000474149 0.00375811 0.0117864 0.0182911 0.0234474 0.0268709 0.0051076 -0.023994 -0.0198152 -0.0248414 -0.00283749 0.000980859 0.00120907 0.00751861 0.00941275 0.00309278 0.00216462 0.00237103 0.00782754 0.00141534 -0.00129588 0.00454452 -0.00306284 -0.00908187 0.00399669 0.0211157 0.0218093 0.0162011 0.0163849 0.0126179 0.0173055 0.0242361 0.0318483 0.015011 0.00130839 -0.0134181 -0.0171811 -0.0230098 0.00285616 0.00714306 0.00372926 0.00568178 -4.30341e-05 0.00783505 0.00907216 0.00948454 0.00531457 -0.000856724 -0.00446956 -6.69492e-05 0.00655987 -0.00845225 -0.00716695 -0.0050468 0.00603502 0.0123799 0.0214371 0.0236608 0.0150129 0.0225245 0.0170888 0.00721544 -0.000668878 -0.0138599 -0.0180845 -0.0103809 -0.00058348 0.00706722 0.001237 0.00683701 0.00110566 0.01 0.00835052 0.00649485 0.00179528 0.0059524 0.00290929 0.00717492 0.00837168 -0.000986204 0.00374334 0.00413982 0.00681802 0.00482233 0.0112761 0.00967979 0.0126954 0.0147972 0.00296651 0.000368294 0.0024712 0.00531811 0.0081165 0.00259023 0.00968753 0.00943968 0.00647193 0.000742624 0.00113463 0.00556701 0.00793814 0.00226804 0.00521257 0.00570607 0.00807443 0.005779 0.00593077 0.00885816 -0.000885259 0.00674459 0.00649059 0.00668279 0.00348304 0.00453202 0.00816349 0.00592747 0.00185299 -0.00256352 -0.00115985 0.00694994 0.00256948 0.00631741 0.00303711 0.00126889 0.00250461 0.00546402 0.00948466 0.00917526 0.00134021 0.0056701 0.00979381 0.00433251 0.00307419 0.00448396 0.00492833 0.00650799 0.00844965 0.00537671 0.00219055 0.00821927 0.0107925 0.0141622 0.00925917 0.0102202 0.00938558 0.00475211 0.00231207 0.0101902 0.00383846 0.0105062 0.00972475 0.00812747 0.00464183 0.00185567 0.00886598 0.00721649 0.00237113 0.00309278 0.00113402 0.00371134 0.00876289 0.000721649 0.0081557 0.00697386 0.000679247 0.00340171 0.00377603 0.00850354 0.00683944 0.004982 0.00734808 0.00124959 0.00856905 0.00488264 0.00212617 0.00650528 0.000368467 0.00399865 0.000118168 0.00790905 0.00391753 0.000206186 0.00587629 0.00360825 0.00742268 0.00443299 0.00587629 0.00989691 0.00752577 0.00216495 0.00329897 0.00103093 0.00824742 0.00649485 0.00804124 0.00886598 0.00988688 0.00131826 0.00206186 0.0014433 0.0014433 0.00443299 0.00268041 0.01 0.00938144 0.0101031 0.00618557 0.00443299 0.00381443 0.00680412 0.00216495 0.00278351 0.00216495 0.00804124 0.0014433 0.00958763 0.00216495 0.0023672 0.00908404 0.00461502 0.00446477 0.00762374 0.00585418 0.00242354 0.00375268 0.00890517 0.00631997 0.0033249 0.00533899 0.00844042 -2.81176e-05 0.00685112 0.00254287 0.00802129 0.00657511 0.00164057 0.00783505 0.00783505 0.00618557 0.00670103 0.00979381 0.00340206 0.00453608 0.00165072 0.0012378 0.00596511 0.000661884 0.00835753 0.00798107 0.00476374 0.00246883 0.00171032 0.0021544 0.00386718 9.55057e-05 0.00619061 0.00226985 0.00559341 0.00415736 0.00774327 -0.000115392 0.00486095 0.0100037 0.00253995 0.00274473 0.00169124 0.00969072 0.000206186 0.00948454 0.000618557 0.00700845 0.00402061 0.00401847 0.0012917 0.000214266 0.00466776 0.00166806 0.00034764 0.00809202 -0.000647936 0.00143803 0.00167073 0.00840965 0.00405736 0.00093905 0.00361991 -0.000101533 0.00837147 0.00447683 0.00525068 0.00219673 0.00499498 0.00550375 0.00277666 0.00341121 0.00835052 0.0043299 0.00278351 0.00370498 0.00895359 0.00892264 0.00469182 0.00643977 0.000162112 -0.00102261 0.00742472 0.00307673 0.00611977 0.00644757 0.000363236 -0.00178089 0.00743802 0.00791781 0.000875319 0.000542299 -0.00187889 0.00029591 0.00689633 0.00510603 0.0091323 0.00969729 0.00837143 0.00398292 0.00429823 0.000309278 0.00742268 0.00773108 0.0100019 0.00469663 -0.00144236 0.00744845 0.00242064 -8.39568e-05 0.00563979 0.00211503 0.00680638 0.0118244 0.00390821 0.00436832 0.00408917 0.00162593 0.0080403 0.00100338 0.00413209 0.00180445 0.00919532 0.00613691 0.00523417 0.00738866 0.00636205 0.00867655 0.00170583 0.00391753 0.00237113 0.00606812 0.00393962 0.00349498 0.00861952 0.00740586 0.0094884 0.0138973 0.0108233 0.0051984 0.0080534 0.00959272 0.00316591 -0.00172544 0.00561317 0.0013329 0.00531708 0.000172522 0.00497541 0.00631435 0.00107444 0.000403298 0.00101911 0.00705006 0.0024312 0.00114899 0.00508637 0.00896908 0.00989946 0.00193943 0.00709922 0.00655596 0.0102378 0.0133605 0.0123529 0.00435827 -0.00130252 0.00312241 -0.000759109 0.00126646 -0.00522296 -0.00545591 -0.00407472 -0.00336216 -0.0056685 -0.00122917 0.00320747 0.00354766 0.00332205 0.000604345 0.00296288 0.00283862 0.0104564 0.00902406 0.00996217 0.00763558 0.00536443 0.0101595 0.000318355 -0.00111147 0.00232715 0.0118915 0.00243014 0.00152606 0.000281516 -0.00376051 0.00143315 -0.00486861 -0.0099499 -0.00890702 -0.0104991 -0.00843518 -0.00792504 0.000718985 0.000470499 0.00370779 -0.00233194 0.00174313 0.00140639 0.00688825 0.00155575 0.00889629 0.00361066 0.0057732 0.00267999 0.00323962 0.00737229 0.00185864 0.00195816 0.00921189 0.00184833 -0.00263158 -0.00344311 -0.0076693 0.0021952 0.00298926 -0.000357896 0.000892001 -0.00189831 -0.00258809 0.00201273 -0.000916463 0.0010013 -0.00283565 0.00700161 0.00635448 0.00803312 0.00964837 0.00101502 0.00458633 -5.55077e-06 0.00659794 0.00843923 0.00339802 0.0070871 0.00448648 0.00245224 0.000877101 0.00459451 0.000430622 -0.00865058 0.003115 0.00356304 0.000754108 0.00479704 0.00179803 0.00417053 0.00527963 -0.00351177 0.00351364 -0.00031917 0.0046865 0.00492875 0.00167442 0.00204604 0.00710496 0.00320846 0.00383694 0.00692321 0.00814433 0.00278953 0.00692209 0.00985176 -0.000203059 -0.00610016 -0.000354882 -0.00175189 -0.00364369 -0.00698074 -0.00238318 0.00342857 -0.00406799 0.00377508 0.00330447 0.00583283 -0.0011192 0.00470845 0.00409034 0.000501852 -0.00170134 0.000458871 -0.000432281 -0.000255041 0.00323406 0.01036 0.0100494 0.00309528 0.00752577 0.00804663 0.00521876 0.0051224 -0.00183004 -0.00326191 -0.00127177 -0.00137887 0.00352766 -0.0042145 0.00558121 0.00288382 0.00079415 -0.00188408 -0.00595142 -0.00776909 -0.00699835 -0.00628244 -0.00462242 0.00413062 0.00052146 -0.00293794 0.00104479 -0.00421059 0.00484534 0.00211718 0.00697022 0.0097943 0.00742268 0.00113281 0.00257957 0.00389134 0.00204315 0.00306239 -0.00176294 0.00192729 0.000722972 -5.49479e-05 0.000649177 -0.0040795 -0.0026337 -0.00554035 -0.00259523 -0.0111003 -0.0103269 -0.0124112 -0.011988 -0.00174293 -0.00534275 0.00233055 -0.00375301 -0.00148996 -0.000271828 0.00880841 0.00259078 0.00289331 0.00628866 0.00917426 0.00238366 0.00253627 0.00371884 -0.00497546 -0.00441037 0.00037603 -0.00252361 0.00541268 0.00772777 -0.000309692 -0.00152972 -0.00390101 -0.00130608 0.00259689 -0.00712831 -0.00813079 -0.013118 -0.00152837 -0.00722185 -0.00175602 0.00195726 -0.0029724 0.00154245 0.00378528 0.00187229 0.00907261 0.00319588 0.00422679 0.00722353 0.00906528 0.00833932 0.00183866 0.00167107 -0.00510314 0.00396427 -0.000904798 0.00866168 0.00429226 0.00199618 0.00347699 -0.00279905 -0.00390893 -0.00607101 -0.00325648 -0.00448442 -0.00745348 -0.00273712 -0.00234764 0.00734844 0.00576432 6.53041e-05 0.00124539 0.00414419 0.00608816 0.00659794 0.000927872 0.0104974 0.00520821 0.0056185 0.00457658 0.00478718 0.00221738 -0.00450762 0.00218989 0.00579561 0.0051011 0.00914027 0.00767997 0.00857092 -0.000306353 0.000426593 0.00328645 0.000738235 -0.00383632 0.00210002 0.00379484 0.00623286 -0.00139366 0.00536733 0.000511396 0.00357905 0.00673053 0.00329897 0.00762887 0.00794441 0.00564519 0.00427665 0.00561099 0.00647706 -0.000672316 0.00472909 0.00461716 -0.00286537 0.0016978 0.00185085 0.0108034 0.000487587 0.00646417 0.00645061 0.00419693 0.00359681 -0.000406324 0.00302808 0.00429796 0.00703553 0.00672657 0.00355972 0.00425624 0.00491984 0.00502675 0.00556542 0.00845361 0.00132626 0.00445006 0.000416536 0.00822995 0.00131187 0.000193908 -0.00413374 -0.00341251 0.00165409 -0.00551674 0.00270336 2.19436e-05 0.00168221 0.00169635 -0.000432987 0.0054095 -0.000269904 0.00804366 -7.89122e-05 -0.00215591 0.000671282 0.00374695 0.00309483 -0.000118208 0.00838136 0.00226169 0.0101031 0.00299175 0.00708607 0.000292446 0.00128478 0.00971109 0.0085274 0.00489894 -0.0029597 -0.007368 -0.00946862 -0.00560353 -0.00576711 -0.00106946 -0.00591584 -0.00405624 -0.00547759 0.00127685 0.00110914 0.0018076 0.00266296 0.000536645 -0.00319284 0.0061615 0.0111583 0.00761529 0.0102454 0.00133538 0.00783505 0.00340372 0.00353673 0.00229354 0.00691255 0.000461484 0.00184887 0.00137273 0.00333841 0.00244619 -0.000478144 -0.00400021 -0.0104073 -0.00965343 -0.00984506 -0.0153963 -0.00596726 -0.00745295 0.00471083 0.00279321 0.00624151 0.00602323 0.00501701 0.00140593 0.0026665 0.00750584 0.00606156 0.00938144 0.00401871 0.00608188 0.00569818 0.00651927 0.00379372 0.00767001 0.00262273 -0.000116192 0.00567586 -0.000627656 0.00244993 0.0030759 -0.0063104 -0.00276223 -0.00848781 -0.00902937 -0.00828224 0.00226544 0.0032082 0.00445352 0.00157633 0.00251804 0.00621676 0.00900747 0.00866469 0.00531419 0.00855755 0.00721649 0.00566826 0.00958703 0.0012966 0.00972593 -0.000488009 0.000602561 -0.000638973 0.00298086 0.00215351 0.00686715 -0.000712525 0.000261949 0.00733384 0.0080236 0.0029364 0.00647176 0.00240507 0.00788339 0.00226223 0.00360198 0.00891765 0.000291959 0.00442724 0.00482957 0.00255465 0.00319313 0.007557 0.00793814 0.000618557 0.000206186 0.004989 0.00669495 0.00945482 8.63977e-06 0.00376389 -0.00300938 0.00121915 0.000816263 0.00521331 0.000585099 0.00915133 0.00717451 0.000328352 0.0074748 0.00280667 0.00670652 0.0106945 0.00388226 0.0031235 0.00290043 -0.000184825 0.0057815 0.00824865 0.00757762 0.0041184 0.00824742 0.00298969 0.00587629 0.000939624 0.00381366 0.00602646 0.000401647 0.00900379 0.00397752 7.29435e-05 -0.00170854 -0.00255886 0.00026902 0.0040827 -0.000459057 0.000929796 0.00998623 0.0104274 0.0118705 0.00468692 5.05816e-05 0.00357975 0.00577877 -0.000154313 0.00129045 0.00177364 0.00259792 0.00175447 0.00371134 0.00391753 0.0056701 0.00701067 0.00691909 0.00123449 0.00807837 9.56573e-05 0.00695811 0.00281986 0.00409481 0.00696822 0.00588025 0.00758105 0.00978087 0.00225714 0.00596531 0.00985195 0.00299374 -0.000265844 0.000794959 0.00655579 -0.000290406 0.00843684 0.00344568 0.00809784 0.00959039 0.00505484 0.00463918 0.00185567 0.00690722 0.00350515 0.00577172 0.00760674 0.000224618 0.00217731 0.00344949 0.00256235 0.00708642 0.00582932 0.00716081 0.00289262 0.00360938 0.00774241 0.00305081 0.00763496 0.000722642 0.00284195 0.00231726 -0.000413211 0.00371585 0.00875966 0.0023484 -1.22512e-06 0.00762887 0.0057732 0.00793814 0.00690722 0.00597938 0.00762887 0.00876289 0.00793814 0.000824742 0.00968909 0.000293947 0.00648004 0.0070974 0.00420079 0.00482355 0.00480975 0.000374779 0.00725613 0.00294165 0.00998026 0.00593673 0.00710737 0.00294723 0.00204687 0.000118026 0.00532718 0.00223647 0.0101031 0.00979381 0.00463918 0.0101031 0.0071134 0.00546392 0.00278351 0.00907216 0.00649485 0.000103093 0.00268041 0.00412371 0.00639175 0.00206186 0.00443299 0.00793814 0.00917968 0.00877257 0.00247423 0.00381443 0.0042268 0.00989691 0.00680412 0.00927835 0.000618557 0.00907216 0.00195876 0.00278351 0.00453608 0.00268041 0.000103093 0.0043299 0.00216495 0.0101031 0.00412371 0.00443299 0.000412371 0.00195809 0.00319286 0.00691807 0.00748395 0.00588086 0.000823267 0.00350778 0.00302807 0.000356719 0.0011787 0.00199615 0.00414331 0.00908302 0.000848404 0.00839489 0.00868993 0.00271144 0.0024957 0.00433374 0.00154639 0.00443299 0.00216495 0.00608247 0.00216495 0.00237113 0.00546392 0.00980027 0.00752793 0.00463674 0.00431454 0.00849379 0.00688907 0.00221364 0.0100253 0.00411845 0.00281378 0.00478647 0.00158054 0.0057193 0.00620442 0.00335883 0.007396 -0.000509527 0.00203503 0.00426023 0.00385007 0.0060313 0.00679234 0.00102461 0.00536082 0.00835052 0.000618557 0.00762887 0.0094791 0.00279977 0.00999247 0.00529858 0.00353054 0.00256627 0.00852191 0.00136284 0.00437307 0.00447469 0.00801355 0.00478936 0.00444617 0.00264954 0.00147955 0.00845584 0.0106454 0.00514596 0.00724789 0.00106077 0.00749161 0.0029497 -8.27359e-05 0.00567152 0.00868171 0.00680412 0.00701031 0.00381443 0.0101875 0.00763308 0.00127624 0.0107819 0.00710534 0.00894793 0.0115118 0.00895089 0.00267122 0.00449966 -0.00131293 -0.000362435 0.00253564 0.00575809 0.00740782 0.000911237 0.0106219 0.00757217 0.0142811 0.00529419 0.00294708 0.00342048 0.0074509 0.00839111 0.00213326 0.00905301 0.0101031 0.000824742 0.00546133 0.00682311 0.0103093 0.00206808 0.011 0.0086391 0.0065195 0.00330591 0.0041095 -0.00577744 -0.00350146 -0.00376593 -0.00510896 -0.00351067 0.00385663 -0.00107027 0.0108502 0.0105384 0.0146417 0.00533565 0.00253135 0.00346513 0.00289396 0.00562111 0.00234361 0.000845559 0.00969072 0.00443299 0.00470255 0.00944753 0.000249269 0.0067204 0.00210082 0.00555408 0.00340288 -0.00547867 -0.00222016 -0.0104022 -0.00563372 -0.00548172 -0.00737998 -0.0113975 -0.00579743 -0.00815818 0.00138508 0.00567895 0.0108594 0.00656115 0.00439832 0.00721243 0.00985233 0.00344448 0.00708023 0.00616615 0.00350418 0.00413347 0.00671507 0.0026909 0.00328008 0.0085329 0.0033676 0.00373824 -0.00336532 -0.00494003 -0.00586183 -0.00940535 -0.00843824 -0.0124395 -0.0122143 -0.0114953 -0.00627154 -0.0132849 -0.000968993 0.00662273 0.00641475 0.00426196 0.00286999 0.00463501 0.00464939 0.00255264 0.00979649 0.0038194 0.002501 0.00153989 0.00488968 0.00594082 0.00543181 0.00190906 0.00888936 0.00588218 -0.00369334 -0.00546813 -0.00922831 -0.00866577 -0.00757319 -0.00780638 -0.00820061 -0.0103437 -0.000401921 -0.00296016 0.00264692 0.00402268 0.00704111 0.00693985 0.00444071 0.0064201 0.00568789 0.00714682 0.00705321 0.00391577 0.00927771 0.00636267 0.00280962 0.0012664 0.00830478 0.0080357 0.00142458 0.00246398 -0.00555255 -0.00736708 -0.0117651 -0.00474949 -0.00803568 -0.00947018 -0.00280426 -0.00393118 0.00618696 0.00397494 0.0012485 0.00383026 0.00574924 0.00540864 -0.000549496 0.00894204 0.00903231 0.00430447 0.00952874 0.00762623 0.00463918 0.00658259 0.00128888 0.00356465 0.00682794 0.00261329 -0.00301977 -0.0040343 -0.00625476 -0.00937404 -0.00365022 -0.00754 0.00679094 -8.63245e-05 0.00626746 0.00781338 0.00843597 0.000674371 0.00783405 0.00480233 0.0113772 0.00547623 0.00489701 0.00387228 0.00483625 0.00601083 0.00473469 0.00721394 0.00154639 0.00476659 0.0046125 0.00117012 -0.00148712 -0.00271801 -0.00505027 0.00298686 0.00116763 -0.0108394 -0.00297597 -0.00212728 8.42556e-06 0.00594005 0.00718497 0.00193673 -0.00168508 -0.00167623 0.000919614 -0.0013793 -0.00344322 -0.0012421 0.0035469 0.00147034 0.0122422 0.00539851 0.00816301 0.00741605 0.000824742 0.00321643 0.00454098 0.00731325 4.47925e-05 0.000127711 0.000700244 0.0019269 0.00201771 -0.0048692 0.00447771 0.00724121 0.00754107 0.0116297 2.17131e-05 -0.00264845 -0.00773946 -0.00549815 -0.000793464 -0.00460861 -0.000433385 -0.000946017 0.00103764 0.00205542 0.00850679 0.00354573 0.00609578 0.0093617 0.00721649 0.0042599 0.00180894 0.00211125 -0.000402754 -0.0025509 0.00822283 0.00512856 0.00225493 0.00492444 -0.00250611 -0.00482108 0.00627947 0.00484954 -0.00739466 -0.00797652 -0.0132509 -0.0178459 -0.0130041 -0.00216317 -0.00141748 -0.00421794 0.00527607 0.0075681 0.00604571 0.00105699 0.00280751 0.0049448 0.00835052 0.00425862 0.00954288 0.00326871 0.00608772 0.0012515 0.0139556 0.00179095 0.000199396 -0.000894607 -0.00312373 -0.00630625 -2.16505e-05 -0.0112503 -0.00786153 -0.00892023 -0.0128017 -0.00960502 -0.00538626 -0.00549808 0.000929119 0.00735816 0.00621415 0.0129423 0.00669724 0.00459178 0.00768497 0.0101027 0.01 0.00589004 0.0102907 0.00595786 0.00987988 0.0112082 0.00453411 0.0106621 0.00380165 0.000202501 -0.00366724 -0.00123516 -0.00514403 -0.00779866 -0.0120023 -0.0167332 -0.01635 -0.011838 -0.000995359 0.00238783 0.00821259 -0.00169077 0.00720384 0.0120993 0.00171514 0.00330653 0.00858648 0.00545452 0.00278351 0.00176022 0.000800224 0.00168255 0.00803026 0.00671631 0.00358083 0.0095438 0.00930999 0.00143657 -0.00159549 0.00120605 -0.00157491 -0.00149549 -0.00165991 -0.00896961 -0.0091306 -0.00966126 0.000664121 0.00487344 0.0038694 0.00346718 0.00122704 0.0072856 0.0032351 0.0094187 0.0055095 0.00152848 0.00793814 0.0100023 0.00293837 0.000627817 0.00141678 0.00965455 0.00736019 0.00856038 0.002163 0.00647771 0.000444406 -0.00170388 -0.00136533 0.0018279 -0.00723848 -0.00218395 -0.0041491 0.00333077 0.00454513 0.00145364 0.00250207 0.00508433 0.00849441 0.00748056 0.00804495 0.00696666 0.00359878 0.00760619 0.0015419 0.00463918 0.00473355 0.0114725 0.00363904 0.00671954 0.00747006 0.00522151 0.0117366 0.00607037 0.00541998 0.00189561 0.00224839 -0.00316257 0.000835911 -0.00341993 0.000747826 0.00113895 0.000488171 0.00357419 0.00245155 0.00494247 0.000896399 -0.000295697 0.00939898 0.00880375 0.00285737 0.0093823 0.00608247 0.00175556 0.00668739 0.00572543 -0.000742261 0.00500683 0.010503 0.00980003 0.00804748 0.00436318 -0.000106995 0.00507955 -0.00151717 0.00471121 0.00115228 -0.00635958 -0.00278989 -0.00252631 -0.00580478 0.0028255 0.00634782 0.00853492 0.00631352 -0.00102873 0.0068278 0.0033851 0.00665958 0.0100011 0.00752577 0.00464525 0.00907019 0.010531 0.00573388 -0.00350238 -0.00219473 0.010117 0.00679621 0.00650401 0.00590959 0.00266663 0.00661328 0.00660942 0.00658319 -0.00177871 0.00266345 -0.00528225 -0.00404072 -0.00483617 -0.000813809 0.00351344 0.00450211 -0.000824051 0.00811001 0.00796372 0.000611999 0.000721649 0.00659841 0.00237128 0.00015484 0.00467678 0.00649858 0.00422011 -0.00301716 0.00664726 0.013128 -0.00150795 -0.00464427 -0.00491452 0.00218312 0.001691 0.000646083 -0.00558637 -0.00246407 0.00421467 -0.00048026 0.00348747 0.0050502 0.00726151 -0.000176477 -0.00196404 0.0084133 0.00145353 0.00188871 0.00360825 0.00474273 0.00247437 0.00425308 0.00158945 0.00412773 0.0044902 0.00372686 0.00491504 0.00709331 -0.00169994 -0.000518004 -0.00278117 -6.15851e-05 -0.00318686 -0.00385951 -0.000448639 0.00347849 0.00286858 0.00474773 -0.000112446 0.00269177 0.0039748 0.00743878 -0.00130655 0.000204313 0.00174664 0.00842537 0.00587629 0.00907216 0 0.004584 0.00902792 0.00206737 0.00934477 0.0101493 0.00183598 0.00430095 0.00672452 0.000958215 -0.00360884 -0.00426838 -0.00126923 -0.00117802 -0.00253643 0.00188197 0.00297458 0.00514013 0.00433769 0.00515569 0.00326922 0.00765904 0.000753266 -0.00124051 0.00319257 0.00885017 0.00670103 0.00525773 0.00701031 0.00764461 0.00954897 0.00701997 0.00219953 0.00829106 0.00338654 0.00395089 0.000516185 -0.000788918 0.000641675 0.0048242 0.00186747 0.00127997 0.00707662 0.00139041 0.00162928 0.000854288 -0.00202049 -0.000432903 -0.000790207 -0.00192122 -0.00139939 0.00606468 0.00506683 0.00783648 0.00154639 0.00835052 0.00639175 0.00329905 0.00867511 0.00858611 0.00588327 0.00672899 -0.0016169 0.00513824 -0.00189795 -0.00319634 0.000734503 0.00158563 -0.00272528 -0.0047209 -0.00328948 -0.00108788 -0.00154558 0.00052582 -0.00202172 0.00216013 0.0054832 0.00742456 0.00124144 7.93876e-05 0.00484628 0.00195987 0.00164948 0.00989691 0.00979381 0.00319588 0.00793547 0.00102627 0.00130634 0.00546601 0.00341126 0.00618754 0.00777015 0.00402615 0.00446418 0.00867482 -0.00143303 0.00131431 0.00616247 0.00619609 -0.000749633 0.00200606 0.000780914 0.00564988 0.00840961 0.00734803 0.00715396 0.00802315 0.00773196 0.00917526 0.00340206 0.00773196 0.000824742 0.00505155 0.00731959 0.0057732 0.00329897 0.00501586 0.0016595 0.00466778 0.00644114 0.00639309 0.00218605 0.00536587 0.00645058 0.00243495 0.00491947 0.00184379 0.00156072 0.00830631 0.00997857 0.00349712 0.0020685 0.0066371 0.00598847 0.00226804 0.00597938 0.00309278 0.00536082 0.00886598 0.00731959 0.00381443 0.00628866 0.00319588 0.00886598 0.00865979 0.00896907 0.00721649 0.00876289 0.00587629 0.00721649 0.00492781 0.00737748 0.00453608 0.00546392 0.00371134 0.00721649 0.000206186 0.0056701 0.00391753 0.00371134 0.000618557 0.00268041 0.00618557 0.00814433 0.00391753 0.00350515 0.00927835 0.00701031 0.00402062 0.0028866 0.00938144 0.00783209 0.00414396 0.00218012 0.00118195 0.00256098 0.00637501 0.00872532 0.00103654 0.00195968 0.00568103 0.00125399 0.00947488 0.0101849 0.00665339 0.00827616 0.00212028 0.00191606 0.00902614 0.00122743 0.0057732 0.00969072 0.00391753 0.00164948 0.00762887 0.00793814 0.000309278 0.00164293 0.00999795 0.00431916 0.00405402 0.00812302 0.000747361 0.0083339 0.00621972 0.00279777 0.000542508 0.00284736 0.00756945 0.00830251 0.00494507 0.00185211 0.00820764 0.00951255 0.00850562 0.0053024 0.00719496 0.00519433 0.00721482 0.00130239 0.00649485 0.00793814 0.000721649 0.00556701 0.00475803 0.00338343 0.00853848 0.0050361 0.0041093 0.002158 0.0084667 0.00907909 0.00862884 0.00768356 0.00525769 0.00588257 0.0077758 0.00621949 0.00796297 0.0024653 0.00619183 0.0045054 0.00797222 0.00481769 -0.000145387 0.00168823 0.00517953 0.00306324 0.00802127 0.00762887 0.0043299 0.00958763 0.00541488 0.000122537 0.00497119 0.0100594 0.00324866 0.00857825 0.00569128 0.00552984 0.00519627 0.0126273 0.0108886 0.00603429 0.00718072 0.00326796 0.00892587 0.0100511 0.000438315 0.00807781 0.00454219 0.000359876 0.000813348 0.00587633 0.00659419 0.00678913 0.00938774 0.0078208 0.00979381 0.00216495 0.00526524 0.00928329 0.00150829 -9.51559e-05 0.00971248 0.00278499 0.000766197 0.00806712 0.00895491 -0.00292377 0.00211462 0.000717191 0.00468422 0.00172469 -0.00170825 0.00652043 -0.00227945 0.00653305 0.00668989 0.00474004 0.00344367 0.00505032 0.00718604 0.00343504 0.00783461 0.000391336 0.000309278 0.00216495 0.00827633 0.00558961 0.00461692 0.0038812 0.00502238 0.00691005 0.00720288 -0.000132268 0.00341288 0.00257953 -0.000609769 -0.00161616 -0.00457968 -0.00546733 -0.00552122 -0.00555319 -0.00496704 -0.000743228 0.00533263 0.0050826 0.00688329 0.00466369 0.00286201 -0.00087993 0.00801379 0.00693356 0.009175 0.000946728 0.00739423 0.00483115 0.0044951 0.000848712 0.0102773 0.00505513 0.0052309 0.00415771 -0.00233407 0.002227 -0.000807942 -0.00461059 -0.00781955 -0.0078167 -0.00346694 -0.00582491 -0.00825964 0.00191067 0.00110309 0.000336587 0.00312305 -0.00187576 0.00812245 0.00122964 0.00289044 0.00861004 0.00760987 0.00597785 0.00523681 0.00170604 0.00861747 0.00798056 0.00434994 0.00579137 0.00365479 -0.00575415 -0.00631822 -0.00759535 -0.00559211 -0.00654453 -0.000940361 -0.0113713 -0.00632031 -0.00537239 0.00285259 -0.000817222 -0.00224816 0.00793531 0.00940116 -0.00330929 0.00449903 0.00362352 0.00652723 0.00700667 0.0018555 0.00904537 0.00541488 0.00911347 0.000629296 0.00285434 0.00063952 0.000653695 -0.0047768 -0.00316656 -0.0102997 -0.00697515 -0.0115139 -0.00840451 -0.00190922 0.00184405 -0.000741809 -0.00399829 0.000222897 -0.00418231 0.00587447 0.0015246 0.0057022 0.0030685 0.0065347 0.00948383 0.00131971 0.00654733 0.0043299 0.00763662 0.00849895 0.00604046 -0.000236647 0.0031428 -0.00768433 -0.0076118 -0.00702489 -0.0103602 -0.0115309 -0.0134106 -0.0129386 -0.00451528 -0.00269217 0.00384151 0.000515514 -0.000284744 0.000561482 0.003646 -0.00233221 0.00618217 -0.00150262 0.0037332 0.00595049 0.000134606 0.00209807 0.00711614 0.000206186 0.00879684 0.00860537 0.00962275 0.00316923 -0.000693137 -0.00414382 -0.00995146 -0.0090138 -0.0129523 -0.0111557 -0.0104237 -0.00654966 -0.0089914 0.00329244 -0.00189224 -0.00119227 -0.00200782 0.000508366 0.00421406 -0.00148538 0.00452013 -0.00273912 0.00417157 -0.00136292 0.00655004 0.00393144 0.00433099 0.00731959 0.00141502 0.000994875 0.00186536 -0.00331535 -0.00285589 -0.00887666 -0.0118083 -0.0134451 -0.00958986 -0.00768727 -0.0100323 -0.000863044 -0.000544088 0.00502447 -0.00487866 -0.00508441 -0.00723357 -0.0025429 0.00440883 0.001442 0.00262563 0.00199162 -0.00532073 0.00663255 0.00300732 0.00330349 0.00568333 0.01 0.00741887 0.00501454 0.00166481 0.00638985 -0.00589763 -0.00598384 -0.00975099 -0.00580875 -0.0113676 -0.00601214 -0.000174127 -0.000725582 -0.00130629 -0.00162146 -0.00103793 -0.000378969 -0.00278683 -0.00730934 -0.00324628 0.000667134 -0.000734424 -0.0059264 -0.00344289 0.00454206 0.00273866 0.00357075 0.001041 0.000721649 0.00180179 0.00178296 0.000579544 0.00846412 0.00130592 -0.000873384 -0.00711346 -0.00162734 -0.00554566 -0.00199629 -0.00446651 0.00237855 0.0015588 0.0080589 0.0016473 0.00340742 -0.00375506 -0.00435172 0.00166607 0.00174908 0.000958305 -0.00220898 -0.0059752 0.00292294 0.000336936 0.00383255 0.002063 0.00814433 0.0021747 0.00870911 0.00995481 0.00567136 0.00509271 -0.000465525 -0.00158255 -0.00723469 -0.00713361 -0.00745513 -0.00116318 0.00660531 0.00288651 0.00981183 0.00799305 -0.00353268 -0.00408432 -0.00155183 0.00485158 0.000345717 0.00380815 -0.00321003 -0.00602789 0.000189791 0.00596764 0.00644806 0.00291788 0.000927835 0.00459981 0.00553846 0.0118708 0.0109529 0.0110781 0.000532545 -0.00261011 -0.00695431 -0.00249693 -0.00517171 -0.00245873 0.00561519 0.0109582 0.00538203 0.000857789 -0.00239911 0.00616467 0.00378074 -0.0026294 -0.00268526 -0.000134038 0.0040933 0.00132517 0.00283626 0.00905203 0.00199308 0.00169567 0.00917526 0.00249326 0.0050918 0.0142513 0.0129749 0.00813756 0.00593946 0.000452158 -0.007504 -0.00346779 -0.0033558 -0.0017455 0.00301747 0.000503458 -0.00132911 -0.0016442 0.000642399 0.00295401 0.00093475 0.00278072 0.00229544 -0.00144197 0.00303186 0.00532204 0.00194226 0.00997702 0.000347412 0.00288725 0.00721626 0.0071134 0.0048973 0.0102952 0.015367 0.0080504 0.00363523 -0.000937221 -7.06729e-05 -0.000160418 0.000664073 0.00018817 0.000213652 -0.0019375 0.00398239 0.000295298 -0.00310604 -0.00358336 0.00393281 0.00331325 0.0039254 0.00151424 -0.000759806 -0.00193142 0.00341838 0.00480977 0.005618 0.00310825 0.00278351 0.00576452 0.00567478 0.0118701 0.0137291 0.0092052 0.00148044 0.00158669 0.00519445 -0.00506716 -0.00396653 -0.00462463 -0.00634784 -0.0027848 -0.00582238 -0.00505918 0.00148172 0.00492263 0.000795408 0.00507889 0.0066075 0.00595956 0.00399335 0.00150757 0.00772847 0.00962265 0.00468202 0.00763291 0.00278351 0.01009 0.000414337 0.00165345 0.00416154 0.00579408 0.00339335 0.010202 0.00552382 0.00290412 -0.00679397 -0.00802321 -0.00237534 -4.85415e-05 -0.00335333 -0.00542884 -0.00167538 0.00190568 0.00913894 0.000254206 0.00273977 -0.00246141 0.00269976 -0.00151354 0.0103807 0.00740692 0.0034697 0.00298969 0.000721932 0.00298978 0.000802691 0.0103676 0.0099013 0.00338869 0.0122729 0.00944479 0.00612859 -0.00115708 -0.00626894 -0.00301003 -0.0106545 -0.00170624 -0.00878318 -0.010528 0.00185902 -0.00208328 0.0065629 0.00285102 0.00634912 -0.000645781 0.00568703 0.00814081 0.00695216 0.00883011 0.00399906 0.00670103 0.00515491 0.00247432 0.00991075 0.00727945 0.00561434 0.00663573 0.010983 0.00242437 0.00365853 0.00203552 -0.00255188 -0.00718221 -0.00706259 -0.00420704 -0.00626821 -0.00874134 -0.00356166 -0.00363229 -0.00185061 0.00302138 0.000258784 -0.00175633 -1.86045e-05 0.00596977 0.00435619 0.0013723 0.000617533 0.00587629 0.00958763 0.00474227 0.00766755 0.0107192 0.00688536 0.00722243 0.00077947 0.00773729 0.00522568 -0.00364405 0.000608357 -0.00388181 -0.00359121 -0.00372427 -0.00681973 0.00142646 -0.0018053 -0.00286237 0.00554739 0.00155407 -0.00206778 0.00307784 0.00553798 0.00926514 0.00844587 0.00989851 0.0061024 0.0071134 0.000618557 0.00185567 0.00260173 0.00559785 0.00644067 -0.00017191 0.0107155 0.00963532 0.00295614 0.00103874 0.00466718 0.00756431 0.00262755 0.00332526 0.00304679 -0.00195236 0.00363796 0.00336313 0.00177572 0.00658105 0.00425503 0.00875742 0.00957471 0.00139685 0.00345748 0.00563979 0.00588148 0.00649485 0.00505155 0.00701031 0.00866108 0.000724096 0.00877441 0.00644733 0.00136692 0.000811546 0.00209412 0.00181678 0.00955696 0.00376985 0.00245117 -0.000488129 0.00622046 0.0024807 0.00755807 -0.000476473 0.00290451 0.00447244 0.000549239 0.00675258 0.00161365 0.00518795 0.0052155 0.00629194 0.00155031 0.00381443 0.00154639 0.00247423 0 0.00659822 0.00959072 0.00882756 0.00252166 0.00313368 0.0100579 0.00332834 0.00373546 0.00169467 0.00478447 0.00267576 0.000307308 0.00111283 0.00245642 0.00322577 0.00375485 0.00543474 0.00315559 0.00690388 0.00939892 0.00380812 0.00948456 0.00670103 0.00412371 0.00989691 0.00268041 0.000721649 0.00340206 0.00958763 0.00329897 0.00876289 0.00587889 0.00794088 0.00226171 0.00327279 0.000782367 0.00224078 0.00668517 0.0043225 0.00370026 0.000921504 0.00171444 0.0037458 0.00738444 0.00991141 0.00701287 0.00106144 0.00546797 0.00577967 0.00329897 0.0101031 0.00463918 0.00793814 0.00154639 0.00381443 0.00752577 0.00958763 0.00463918 0.000618557 0.00886598 0.00298969 0.00443299 0.00979381 0.00597938 0.00680412 0.00277479 0.00678503 0.00907216 0.00948454 0.00628866 0.00783505 0.00546392 0.00309278 0.00134021 0.00257732 0.00268041 0.00340206 0.00907216 0.00319588 0.0043299 0.00206186 0.00298969 0.00402062 0.01 0.00989691 0.00793814 0.00226787 0.00916297 0.00760646 0.00285547 0.00772889 0.00566078 0.00245517 0.0071981 0.00130739 0.00915419 0.00986979 0.0032566 0.00806254 0.00428887 0.00943013 0.000586001 0.00976448 0.00234169 0.00731445 0.00216495 0.000103093 0.0057732 0.000927835 0.00340206 0.0101031 0.00835052 0.00144874 0.00391966 0.00319524 0.00110383 0.00682363 0.00535649 6.12593e-05 0.00413069 0.00303226 0.00262946 0.00956326 0.00558958 0.00880399 -0.000648569 0.00309971 0.00384057 0.00355996 0.00792917 0.00922926 0.00862541 0.00864008 0.0039737 0.00628738 0.0056701 0.00597938 0.00628866 0.00113402 0.00196015 0.00475512 0.00639379 0.00559844 0.00603112 0.00479616 0.00837301 0.00308288 0.00289083 0.00479484 0.00434791 0.00749514 0.00882158 0.00421929 -0.000627187 0.00254381 -0.000241277 0.00659946 0.00254877 -0.000502582 0.00506992 -0.000531268 0.00933908 0.00488838 0.00445197 0.00845361 0.00597938 0.00515464 0.00959237 0.00743076 0.00154723 0.000786926 0.00150574 0.00829311 0.00769154 0.00569142 0.00624587 0.00350909 0.00771614 0.0101139 0.0037212 0.00459396 0.00666633 0.00771336 0.00506084 0.00111158 0.00612282 0.000757135 0.00667666 0.00545067 0.00445185 0.00551234 0.00350176 0.00895214 0.00989691 0.0028866 0.0022687 0.000671656 0.00842058 0.000434559 0.00753185 0.0094874 0.00743988 0.00999994 0.00158791 0.00239424 -0.00294437 -0.00663484 -0.000176205 -0.000515995 -0.00364547 4.313e-05 0.00397288 -0.00202745 -0.00409354 -0.00388615 0.000515149 0.00221704 0.00921352 0.00198757 0.0016727 0.00925335 0.00690722 0.000206186 0.00311479 0.00165659 0.00341817 0.0052526 0.0062885 -0.000881659 0.00388618 0.00122888 0.00027066 -0.00395723 -0.00358882 -0.00450182 -0.00272008 -0.00444292 -0.00438504 -0.00507518 -0.00756127 -0.00382937 0.00211389 0.00442935 0.00717852 0.00125836 0.00461837 0.00258761 0.00793517 0.00925153 0.00948343 0.00465546 0.00823677 0.000886918 0.00499087 0.00658477 0.00535648 -0.00240854 -0.00498896 -0.00317808 -0.00130707 -0.00558832 -0.00821403 -0.00362816 0.000525625 -0.00823272 -0.00473567 -0.00221885 -0.00566153 -0.000942396 -0.00392142 0.000360208 0.000159252 0.00315932 0.0100613 0.00938117 0.00877055 0.00895827 0.000323205 0.000642506 0.00781431 0.00937783 0.00503695 -0.000640846 -0.00354699 -0.00160277 -0.00111873 -0.00295322 -0.00535861 -0.00774687 -0.00114012 -0.00328699 -0.00032705 0.00219836 0.0023736 -0.00798794 -0.00664008 -0.00659989 0.00190491 0.00419444 -0.00165926 0.00350785 0.0105284 0.00102127 0.000430469 0.00947991 0.00845288 0.00340619 0.00324832 0.00312691 0.00299741 0.00262412 -0.00297304 -0.00364019 -0.00863434 -0.0057631 -0.0140691 -0.00667482 -0.00725717 -0.00678308 0.00306302 -5.41414e-05 0.00427811 -0.000955698 0.00113711 0.00137834 -0.00582881 -0.000344944 0.00125102 -0.00120247 0.00615809 0.00708146 0.00657296 0.00181696 0.00134021 0.00160474 0.00626575 0.0048907 0.0030575 0.00443037 0.00106698 -0.000386023 -0.0111433 -0.00971075 -0.0126599 -0.00619929 -0.00243305 -0.00726186 0.00424451 0.00271154 0.00375149 -0.00307973 -0.00794438 -0.00845607 0.000327682 -3.58911e-05 -0.00583789 -0.00164835 0.000354463 0.00643125 0.00871007 0.00836364 0.00701031 0.00470777 0.00498473 0.00812433 0.00416989 -0.00530276 -0.00639568 -0.0107066 -0.0130231 -0.0152511 -0.00401395 -0.00524016 0.00227494 0.00155477 -0.0060206 -0.0079591 -0.00852046 -0.00261485 -0.00951467 -0.00112784 -0.00838428 -0.00713842 0.000637859 -0.00436458 -0.00110396 0.00949625 0.00809773 0.0027736 0.00515464 0.0065642 0.00597321 0.00115177 0.00335888 -0.00466955 -0.0029381 -0.00182263 -0.0100107 -0.0108742 -0.00137618 0.00411311 -0.00250748 -0.00136429 0.000246139 -0.00579453 -0.00984906 -0.00810547 -0.0048659 -0.00517386 -0.00468092 -0.00540281 -0.0087234 0.00435328 0.00452706 0.00921954 0.00609366 0.00349628 0.00371134 0.00391152 0.00126731 0.00850078 0.00330934 0.00285685 -0.000798485 -0.00183531 -0.00743157 -0.00613664 -0.00578646 -0.00188843 0.00553181 -0.0034745 0.00374884 -0.00817118 -0.0154342 -0.0101848 -0.000902494 -0.00458714 -0.00785322 -0.00449157 -0.00271949 0.00320254 0.00161895 0.000933207 0.00425615 0.00650266 0.00989691 0.010005 0.00502553 0.00836439 0.00793 0.00332178 -0.00262535 0.000984538 -0.00813966 -0.00466159 -0.00779636 -0.0108031 -0.00217978 -0.00777194 -0.0066085 -0.0105314 -0.0162525 -0.0106664 4.55606e-05 0.00354711 0.00377147 0.00275878 0.00154096 0.000518268 0.00680254 0.00256042 0.00946121 0.00804239 0.00865979 0.00269631 0.00423379 0.00836252 0.00330393 0.00942217 0.00349076 -0.00205073 -0.00931769 -0.0069741 -0.0101058 -0.00958848 -0.00883302 -0.00964318 -0.00811846 -0.0116958 -0.00953282 -0.00711889 -0.00550785 -0.00465827 -0.00345392 0.00130093 0.000672435 0.00287773 0.00463094 0.00244118 0.00585012 0.00931028 0 0.00383328 0.00713572 0.00973591 0.00450875 0.00819323 -0.00261475 -0.000494887 -0.00993571 -0.0126582 -0.00975468 -0.00612539 -0.00183592 -0.00802872 -0.00719319 -0.0118469 -0.00989608 -0.00356063 -0.00331083 0.00455055 -0.000219068 0.00516873 0.00134328 0.00836713 0.00387611 0.0090792 0.00489556 0.00458549 0.00628866 0.00969394 0.0037283 0.00842124 0.0122012 0.00710331 0.00144124 0.00095176 -0.0104915 -0.0123581 -0.00417993 -0.00476966 -0.00513405 -0.00076792 -0.0054268 -0.0124623 -0.0132242 -0.000328476 0.00130678 0.00214308 5.77163e-05 0.000628149 0.00130212 0.00321263 0.000688374 0.00723567 0.00241431 0.00543594 1.30347e-07 0.00690722 0.0051783 0.00947116 0.00509206 0.010595 0.00174296 0.0056013 0.0026862 -0.0053389 -0.00264304 -0.00842582 -0.00535024 -0.00635777 -0.00830708 -0.00699038 -0.000526197 0.00212281 0.000915646 0.00615379 0.00278387 0.00620785 -0.000577487 0.00709656 0.00107341 0.00347292 0.00979715 0.00309539 0.00463918 0.00194913 0.00370551 0.00705983 0.00651629 0.0112251 0.000573704 0.00282015 -0.00132644 0.00417423 0.00634388 -0.00300715 -0.00518327 -0.002418 -0.00496039 -0.00141262 -0.0052523 0.00262526 -0.00234908 -0.00415303 0.0020169 0.00390471 0.00360657 -0.000976027 0.000694305 0.00749903 0.00684713 0.00401956 0.00556701 0.00144609 0.00256571 0.0120218 0.00564194 0.00359058 0.00910451 0.00676782 0.00898223 -0.000743254 0.00409823 0.00300238 0.002304 0.00134263 -0.00619577 -0.0072668 0.00225825 0.00440979 -0.00222995 -0.00117696 -0.000312715 -0.00385196 -0.00112624 0.00643989 0.00313784 0.00054073 0.00492373 0.00793814 0.00267828 0.00144263 0.00181531 0.00919423 0.00987678 0.00836147 0.000730589 -0.00105502 0.00680303 -0.000305536 0.000576539 -0.00112751 0.00309107 -0.00313696 -0.00635848 -0.00644027 -0.000975042 0.00280121 0.00177722 0.00312811 0.00152115 0.00284237 0.000186585 0.00556499 0.00524806 0.00687082 0.00768471 0.00257732 0.00154432 0.00226737 0.00572814 0.00996747 0.0094631 0.00621672 0.0045928 0.00374002 -0.00218868 0.000515008 -0.000107318 -0.00384265 0.00241825 0.0025252 -0.00238788 -0.00479841 0.000580344 -0.00212658 0.00185887 0.0018766 0.0070457 0.00458112 -0.000833496 0.00965268 0.00724883 0.00948934 0.00801799 0.0102062 0.000103093 0.00525773 0.00790083 0.00207317 0.00235554 0.00324468 -2.22561e-05 -0.000437183 0.00204983 -0.000770552 0.00552004 0.00314769 -0.00130465 0.000532539 -3.3164e-05 -0.00342013 0.00140055 0.000816673 -0.000907132 0.00242334 0.00755813 0.00443684 0.00770416 0.0089094 0.00805315 0.00971272 0.00878552 0.0056701 0.00329897 0.00639175 0.00550584 0.00353439 0.00649949 0.00301266 0.000533828 0.00827634 -0.000709194 0.00358501 -0.00496456 0.00145624 -0.000631929 -0.00279162 -0.00336039 0.00548189 -0.00241567 0.000550987 0.00658038 -0.000757341 -0.0012301 0.00835117 0.00697485 0.000588877 0.00981761 0.00504694 0.00423287 0.00731959 0.00958763 0.00268041 0.00804354 0.00258378 0.00426713 0.00871152 0.00154109 0.000793288 0.00628768 0.000897772 0.00393985 0.00695977 0.00711096 -0.00222242 4.84525e-05 0.00659501 -0.00132256 0.00739471 0.00648916 0.00651802 0.0052712 0.00526127 0.00880202 0.0065453 0.00421889 0.000108835 0.00175944 0.00340206 0.00515464 0.00597938 0.0057732 0.00979365 0.00372922 0.00357122 0.00736713 0.00748504 0.00646199 0.00752174 0.00317581 0.00333068 0.00952691 0.00781676 0.000626229 0.00181812 0.00860304 0.00604577 -0.000454968 0.00378951 -6.73876e-05 0.00310274 0.00126178 0.00637329 0.00917465 0 0.00783505 0.00835052 0.000103093 0.00958763 0.0014433 0.000309278 0.00525773 0.00226804 0.00514803 0.00409417 0.000781814 0.00230836 0.00167962 0.00799697 0.000562843 0.000413153 0.00143328 0.00560472 0.00922428 0.00849515 0.00315791 0.00356839 0.000136812 0.00911361 0.00818588 0.000804743 0.00257732 0.00979381 0.00721649 0.0014433 0.00484536 0.00484536 0.00989691 0 0.00948454 0.00639175 0.000412371 0.00989691 0.00381443 0.000618557 0.00371134 0.00463918 0.0029904 0.000517015 0.00247423 0.00371134 0.00113402 0.00938144 0.00938144 0.00556701 0.00773196 0.00773196 0.00917526 0.00298969 0.00680412 0.00226804 0.00381443 0.00938144 0.0071134 0.00618557 0.00587629 0.00164948 0.000721649 0.000516667 0.00715512 0.005314 0.00208204 0.0025804 0.00485389 0.00590831 0.00327186 0.00858244 0.000234213 0.00640589 0.00430582 0.00807991 0.00505628 0.00541917 0.00715126 0.00414876 0.000649903 0.00990074 0.00690722 0.00484536 0.00268041 0.00340206 0.00226804 0.00649485 0.00247423 0.00444945 0.00773772 0.00350951 0.00128067 0.00364392 0.00455147 0.00919632 0.00957176 0.0060327 0.000327138 0.00302666 0.00664749 0.00382223 0.00707046 0.00695343 0.00482014 0.00629124 0.00494773 0.0101806 0.00146524 0.00733219 0.00938807 0.00742975 0.00690722 0.00608247 0.00731959 0.00463918 0.00949029 0.00468651 0.0062942 0.00692496 0.00895721 0.00326396 0.00601762 0.000670743 0.00692978 0.00373058 0.00756843 0.00525644 0.00554346 0.00308898 0.00331048 0.000769678 0.00100208 0.00601031 0.00947041 0.00789962 0.00245932 0.00475291 0.00810167 0.00935285 0.0072142 0.00237113 0.00649485 0.00381443 0.00847334 0.00896896 0.00825372 0.00181164 0.00201154 0.0028899 0.00387899 0.000588144 -0.000140831 -0.00367403 -5.16553e-05 -0.00222784 0.00164055 0.00306274 0.00311629 -0.000976152 0.00867955 0.00742378 0.0046129 0.00165374 0.000596496 0.0079047 0.00565374 0.00981499 0.0084184 0.00918022 0.00896907 0.00536082 0.00123985 0.000249503 0.00331998 0.00258903 0.00631057 -0.000372703 0.00516987 0.002397 -0.00333955 0.00156131 0.00220941 -0.000504338 0.00334772 0.00315394 0.000880514 0.00316143 0.00638757 0.0073323 0.00457249 0.00881639 0.00663877 0.00577967 0.00522211 0.00467181 0.000312709 0.00114134 0.0043299 0.00876289 9.86194e-05 0.00282569 0.00172256 0.00382767 -0.0013117 0.00346056 -0.00342801 0.00166039 0.000822209 -0.000827763 -0.000822275 0.00129761 -0.00253242 0.00481153 0.00316119 -0.00159709 -0.000238397 0.00585931 -0.00091183 0.0112202 0.00204878 0.00393555 0.0077249 0.00399902 0.00713136 0.00830036 0.00876119 0.00727905 0.00941781 0.00249999 -0.000814153 0.0061431 -0.00307734 0.000188664 -0.00475403 -0.00224372 0.0043874 -0.00128832 0.00505646 0.00640456 0.00275709 -0.00349197 -0.00500421 -0.00981962 -0.0100286 -0.00235082 0.00230721 0.0029025 0.0113087 0.00413308 0.00429604 0.00490503 0.00713009 0.00642585 0.00909299 0.0091833 0.00434999 0.00720894 -0.000518261 0.00598286 0.00167844 -0.00136109 -0.00095469 0.00131411 -0.00213609 -0.000608097 0.000699118 0.000605864 -0.00124476 -0.00345482 -0.00482589 -0.00603799 -0.00398411 -0.00690753 0.00221535 0.00275394 0.00457324 0.00303238 0.00613051 0.00307735 0.00227454 0.00432259 0.00360713 0.00472505 0.00576569 0.00755997 0.00144806 0.00689612 -0.00221863 0.00270211 0.00118455 0.00161513 0.00444049 -0.000950144 -0.00527841 -0.00395938 -0.00909476 -0.00835946 -0.0112752 -0.0130695 -0.014941 -0.00448761 0.000413305 -0.000971354 0.00495631 0.0100005 0.00829422 0.0075262 0.00412237 0.00285504 0.00556701 0.00663128 0.00209968 0.00891398 0.00408763 0.00689978 0.00532957 0.0100313 0.00316681 0.00267911 0.00169453 -0.00716227 -0.00659195 -0.0109243 -0.00762146 -0.00867787 -0.0112143 -0.0153146 -0.0144305 -0.00539496 -0.00351173 -0.0027543 0.00162794 0.00610492 0.00579935 0.00464174 0.00838199 0.0101342 0.000824742 0.00777135 0.00242127 0.00569709 0.00184166 0.00308281 -0.000214333 0.0029079 0.00827623 -0.00223443 -0.0109477 -0.00812176 -0.00726175 -0.00278422 -0.00898211 -0.010072 -0.0192606 -0.0173071 -0.00774188 -0.00779396 -0.00455076 -0.000929738 0.00136351 0.0109947 0.0125517 0.00827906 0.00715621 0.00144825 0.00659794 0.000637249 0.00674288 0.00709206 0.00708045 0.0032181 0.0120307 0.00951623 -0.000624998 -0.00339161 -0.0157996 -0.0159328 -0.0146796 -0.00924711 -0.0158474 -0.0124914 -0.0158048 -0.0211123 -0.0186457 -0.0134923 -0.00782872 0.000413353 0.00737009 0.00716035 0.0107122 0.00678152 0.00645492 0.000453163 0.00773196 0.00363176 0.00738583 0.00461698 0.00922671 0.006073 0.0113647 0.00806305 -0.00523963 -0.00892597 -0.0122919 -0.0108657 -0.00751453 -0.0101809 -0.0101227 -0.0182318 -0.0290301 -0.0223368 -0.013283 -0.0162055 -0.00946591 0.000451339 0.00267705 0.00558925 0.00450264 0.0117093 0.00610977 0.0022761 0.00463918 0.00228476 0.00809975 0.00794313 0.00174679 0.0104352 0.00613548 -8.25645e-05 -0.00579008 -0.00678253 -0.0133714 -0.0111272 -0.0104937 -0.011104 -0.0198151 -0.0254776 -0.0323456 -0.0244884 -0.0179799 -0.0103678 -0.002868 -0.00265176 0.00618121 0.0104851 0.0128598 0.00424869 0.0045367 0.00412489 0.00783505 0.000309215 0.00637268 0.00754168 0.00857998 0.00955061 0.00802129 0.00399597 -0.00459289 -0.00758898 -0.0105908 -0.00976419 -0.0098867 -0.0192266 -0.0143113 -0.0197089 -0.0300011 -0.0193486 -0.0153079 -0.012958 -0.00494462 -0.00473699 -0.00140774 0.00485985 0.00472603 0.00458839 0.00246754 0.003919 0.00257732 0.00700858 0.00801892 -0.000360328 0.00466271 0.00933322 0.00722434 0.0042531 -0.00272045 -0.00964253 -0.0043709 -0.0093993 -0.0152441 -0.00924554 -0.0186873 -0.0205046 -0.025204 -0.0220744 -0.0189315 -0.0135636 -0.00788958 -0.00389172 0.00666393 0.0143739 0.0037583 0.00918327 0.00555819 0.000431389 0.00876289 0.00309268 0.0040357 0.000405405 0.0128728 0.00491453 0.00175845 0.0054342 -0.00452667 -0.0054504 -0.00941201 -0.0160488 -0.0157711 -0.0116741 -0.0162243 -0.0162991 -0.0171458 -0.0179071 -0.0214386 -0.0150107 -0.00034503 -0.000693752 0.00975973 0.00907901 0.00537683 0.00688324 0.00964883 0.00279123 0.0100045 0.01 0.00813283 0.00765585 0.00390496 0.00278828 0.00850984 0.00672355 0.00520301 -0.000229369 -0.00690973 -0.00473497 -0.00392714 -0.0123465 -0.0162863 -0.0132275 -0.0223478 -0.0146094 -0.00683448 -0.00801498 0.00292999 0.00449252 0.00772568 0.00880182 0.00203517 0.00730885 0.00391502 0.00310315 0.00226804 0.00301063 0.000704501 0.00130998 0.00822794 0.00862296 0.0037655 0.00448904 0.00451504 0.00490339 0.00588104 -0.00344642 -0.00319429 -0.00294127 -0.0110918 -0.0134231 -0.0179528 -0.010211 -0.0101864 0.00270297 -0.00216734 0.00893918 0.00906631 0.00666361 0.00656733 0.00759635 0.00358803 0.00794239 0.00360825 0.00732903 0.00615818 0.000520254 0.00514797 -0.000360541 0.00516697 0.00660933 0.00411768 0.00174242 0.00257202 0.00561297 -0.00227027 -0.00581751 -0.00287723 -0.00400209 -0.00514982 -0.00266605 -0.0012214 -0.00124118 0.00282169 0.00533547 0.00528308 0.00924877 0.000624022 0.00729926 0.00882473 0.00402062 0.00938192 0.00731974 0.00167942 0.00797957 0.0032697 0.00049734 0.00528064 0.00239662 0.00415853 0.00760251 0.00317121 0.000755317 -0.00325506 -0.00722535 -0.00732921 -0.00180409 -0.0029955 -0.00492793 0.00160838 -0.000131735 0.00565366 0.000543157 0.00800756 0.00637827 0.00767011 0.00638274 0.00646321 0.00484536 0.00824789 0.0102063 0.0089057 0.00208327 0.00629036 0.00505776 -0.00175905 0.00433472 0.00683894 0.00511735 0.00169184 0.00408282 -0.00760135 0.0010559 -0.00498455 6.53178e-05 -0.00232835 0.00724769 -0.00301407 0.00278249 0.00460165 0.0013293 0.00476948 0.00598368 0.0056454 0.00891161 0.0046552 0.00484536 0.01 0.00608247 0.00472091 0.00271648 -9.58439e-05 0.00241477 0.00335542 0.00583509 0.004754 -0.00482653 0.00593771 -0.000629743 0.00184362 -0.00446181 -0.000980822 -0.00233489 -0.00350875 0.001612 -0.00196114 -0.00373058 0.00140172 0.00302886 0.0043563 0.00981291 0.00755655 0.00492685 0.00249133 0.0102062 0.00865979 0.0071134 0.0100951 0.00819513 0.00768106 0.00385677 0.00496095 0.00670488 -0.00109827 -0.00363961 -0.00244098 0.00209795 -0.00109022 -0.00364575 0.00272463 -0.00135631 0.00230985 -0.00456655 -1.52373e-05 0.00189683 0.00723752 0.00792437 0.00157089 0.00758685 0.00616213 0.000332842 0.00732416 0.00948454 0.00525773 0.00979381 0.00938185 0.00895992 0.00169699 0.00925177 0.00691704 0.00971357 0.00345213 0.00296923 0.00275337 0.00542602 -0.00100976 -0.00113905 1.52057e-05 0.00604955 0.00249133 0.00545648 0.00797487 0.00764198 0.00964493 0.0102391 0.00733612 0.000553825 0.000647959 0.00773508 0.00794188 0.00670103 0.00319588 0 0.00587629 0.00350754 0.00992785 0.00488274 0.00201443 0.00656225 0.00922817 0.00412177 0.00129296 0.00248366 0.00777194 0.00536449 0.00396541 0.00269682 0.00743333 0.00239173 -0.000325583 0.0065323 0.00201671 0.00642423 0.0103854 0.00496963 0.00938349 0.00608247 0.00536082 0.01 0.00886598 0.00835052 0.0014433 0.00175258 0.00835052 0.00237113 0.00524998 0.00297446 0.00245748 0.00747848 0.00470968 0.00139461 0.00145475 0.0058825 0.00931821 0.00422956 0.00111081 0.00341767 0.00714902 0.00380287 0.00650676 0.00224326 -1.41201e-05 0.00264242 0.00268041 0.00958763 0.00762887 0.00721649 0.000412371 0.00804124 0.00195876 0.00938144 0.00113402 0.00350515 0.000824742 0.00948454 0.000927835 0.00618557 0.00762887 0.00340206 0.00876725 0.0020714 0.00494845 0 0.00814433 0.00412371 0.00969072 0.00463918 0.00268041 0.00154639 0.00845361 0.0043299 0.00381443 0.00360825 0.00701031 0.00154639 0.0028866 0.00969072 0.00876289 0.00340206 0.00742268 0.00588167 0.00795618 0.00875021 0.00957026 0.00866718 0.00288824 1.82986e-05 0.00995975 0.00561961 0.00893931 0.00843967 0.00771297 0.00353413 0.00351356 0.000562535 0.00271507 0.00290275 0.00517458 0.000417419 0.00443299 0.00865979 0.00484536 0.00329897 0.00195876 0.00154639 0 0.0049565 0.00103342 0.00383395 0.00397921 0.00439099 0.0103418 0.000912838 0.00773186 0.00456443 0.00477912 0.00941279 0.00844022 0.00362805 0.00506356 0.00763804 0.00727052 0.00793853 0.00645997 0.00629491 0.00859003 0.004111 0.00424297 0.00881138 0.00453608 0.00381443 0.00721649 0.00938144 0.00719893 0.00930123 0.00608772 0.00268693 0.0103639 0.00758838 0.00111569 0.00751135 0.00569085 0.00100932 0.0035869 0.00237291 0.00370172 0.00688634 0.00635664 0.00767371 0.00690877 0.00192348 0.00584589 -0.000354825 0.00542056 0.00219734 0.00641416 0.00951814 0.00649094 0.000618557 0.00814433 0.00618557 0.00447587 0.000102807 0.00536124 0.00726757 0.0101918 0.00754371 0.0115271 0.00537041 0.00869412 0.00937662 -0.00151859 0.00150692 0.00292103 0.00775578 0.00357024 0.0024133 0.00533509 0.000507745 0.00146714 -0.00165537 -0.000174366 0.00333445 0.000140978 0.00285203 0.00772687 0.00753026 0.00226804 0.00938144 0.00813597 0.00548291 0.000226978 0.00753899 0.00521298 0.00451522 -0.000155498 0.00639804 0.00374612 0.005379 0.00102587 0.00345702 0.00161404 0.00626397 0.00559794 0.00552385 0.00555336 -0.00181698 0.00620506 0.00103227 -0.00624987 -0.000233663 0.00140888 0.00704986 0.00393366 0.00330559 0 0.00134021 0.00573773 0.00218572 0.00486381 0.00669855 -0.00136511 0.00123784 0.000160325 0.00186447 0.00311315 -0.00135504 0.00651472 0.00320858 0.00855887 -0.001433 0.00531234 0.00164191 0.00147207 -0.003354 -0.00106214 -0.00189549 -0.00276523 0.000595348 0.00398887 0.00360049 0.00435949 0.00887941 0.00103033 0.00846633 0.00691923 0.00598151 0.0046257 0.000849795 0.00616103 0.00314846 0.000234032 0.00115867 0.00581497 0.00516754 0.000701342 0.00217052 0.0023148 0.00138562 -0.000535607 -0.00116549 0.000989612 0.00202996 -0.00792611 -0.00412623 0.000799685 -0.00543827 0.000718322 0.00718918 0.00205622 0.00042325 0.00753565 0.00716074 0.00415043 0.0084416 0.00094291 0.000178116 0.00972913 0.00407846 0.00334814 0.00239256 -0.00772809 -0.00582375 0.00106252 0.00557377 0.00269792 0.00269085 0.00701241 0.00157987 -0.00248966 0.00247803 0.00098994 -0.00381108 0.0061343 -0.00314473 -0.00188729 0.00246384 0.00293094 0.00103917 0.00226765 0.00587918 0.00130703 0.00494982 0.00988834 0.00637141 0.00738292 0.0052226 -0.00211494 -0.0011742 -0.00682987 -0.0071305 -0.00628863 0.00550774 -0.000712793 -0.000158286 -0.00120511 -0.00149349 0.00348192 0.00598054 0.00136019 0.00551624 0.00616162 0.00781984 0.00673826 0.0016491 0.00445777 0.00302074 0.00680412 0.00828074 0.00423599 0.0042683 0.0109052 0.00120191 0.00681113 -0.00237987 -0.00319264 -0.00368712 -0.0106824 -0.00272054 0.00141 0.00885887 0.00851036 0.00754633 0.00149257 0.00129328 0.00439716 0.00471232 0.0026689 0.00039821 0.00915605 0.00790793 0.00173265 0.00413411 0.00614085 0.00336227 0.00742268 0.00149613 0.00685267 0.0093736 0.00638613 0.00836736 0.00151679 0.00572168 0.0023149 -0.00986301 -0.00557254 0.00461039 -0.000184949 -0.00142787 -0.000510496 -0.00308535 -0.000697861 -0.00740248 -0.00239097 0.000932573 0.00649225 0.00990948 0.00847219 0.0106092 0.0122577 0.00744473 0.00613006 0.00648189 0.00113402 0.0022963 0.00970724 0.00370257 0.00620357 0.00478394 0.00336749 0.00317348 -0.000277505 -0.00553835 -0.00178227 -0.00168471 -0.00339973 0.00661313 0.00463836 0.00438871 -0.000667854 -0.00142207 -0.000787457 0.00966368 -0.00091736 0.00424123 0.00842565 0.0058339 0.0114702 0.00618487 0.00852702 0.00893122 0.0028866 0.00965363 -9.30275e-05 0.00391071 0.00616288 0.0131022 0.00555657 -0.00824679 -0.00727175 -0.00551409 -0.00536491 -0.00733879 -0.00333661 0.000929673 0.000888964 0.0111711 0.00362396 -0.0063268 0.000434143 0.0101901 0.00377524 0.00890793 0.0108472 0.00723414 0.00800363 0.0049507 0.00114686 0.00670192 0.00680412 0.00513013 0.000106572 0.00940947 0.00790891 0.00664193 0.00525088 -0.000576692 -0.000650724 -0.00687668 -0.00545111 -0.00914405 -0.0021735 -0.00529283 -0.00488254 0.00144041 -0.00501307 -0.0033559 0.000102613 0.00314665 0.0042819 0.00481712 0.010417 0.000453716 0.00762234 0.00319613 0.00104835 0.00979351 0.00402062 0.00258554 0.00114054 -0.000562942 0.00880842 0.00293462 0.00158356 -0.00280093 0.00358382 -0.00211569 -0.00330678 0.000385688 -0.00282689 -0.00332986 -0.00105095 -0.00145021 -0.00118521 0.00333399 -0.00200341 0.00701607 -0.00095441 7.18887e-05 0.00303718 0.00731032 0.00771897 0.00594269 0.00927407 0.00762438 0.000206186 0.000519767 0.00218297 0.00877143 0.00735002 0.00186003 0.00622529 0.0037477 2.66641e-05 0.000224682 -1.77901e-05 0.00422993 0.000176996 0.00184542 -0.00443476 0.00159828 -0.00886937 0.0024185 -0.00357638 -0.00660758 -0.00245418 -0.00383816 0.00851665 0.00321981 0.0102822 0.00438981 0.00108541 0.00814025 0.00164948 0.00587766 0.00546805 0.00731843 0.00461057 -0.00193532 0.00194409 0.00859668 0.00501676 0.00442018 0.00351338 0.00292174 0.00524859 0.00386068 -0.00428005 -0.0121091 -0.0102484 -0.0090981 -0.00753315 -0.00803397 -0.00467384 -0.000207726 0.00560302 0.00877577 0.0015245 0.000807718 0.000529207 0.00333922 0.00763136 0.00742268 0.00116159 0.0104281 0.00109371 -0.00194158 0.0034894 0.000163438 0.000192106 0.000682825 0.0027067 -0.00259207 -6.13164e-05 -0.0022768 -0.0030774 -0.00946338 -0.0151359 -0.00646163 -0.00559177 -0.00555009 -0.00419183 0.00135726 0.00660647 0.00615147 0.00808746 0.00495851 0.00376025 0.0058604 0.00917526 0.00999156 0.00888778 0.00242072 0.000532422 -0.00123173 -0.0030809 -0.00607496 0.000972977 -0.001141 0.00283073 -0.00328956 0.00524099 -0.00202115 -0.00133787 -0.00701474 -0.00447646 -0.00535935 -0.00256636 0.00305136 0.00195951 0.00494928 0.00368516 0.00663017 0.000645892 0.000341493 0.00446534 0.00381571 0.00350515 0.00350789 0.00956432 0.00765036 0.00213248 0.0014143 0.00348002 -0.00590077 -0.00326567 -0.00136295 -0.00725003 -0.00737178 0.000439696 0.000365186 0.000952532 -0.0118191 0.000456009 0.00188476 -0.00235216 0.00465091 0.0034785 -0.000613958 0.00301582 -0.00240105 0.00451383 0.00333649 0.00923023 0.00680412 0.00577363 0.00896921 0.000287488 0.00431556 0.00071789 0.000730134 -0.000357841 -0.00328574 0.00392623 -0.00207207 -0.0109067 -0.00364196 -0.00494714 0.00125443 0.000407716 -0.00447569 0.00499798 0.00228784 0.00208468 0.00279323 -0.00388188 -0.00425257 -0.00174717 0.00208497 -0.00209677 0.00557307 0.00328143 0.00463918 0.0102066 0.00226818 0.00103419 0.00067185 0.00446456 0.00523459 -0.00022374 0.00168551 -0.00222315 0.00179983 -0.00509893 -0.000935622 0.00282772 0.00176868 -0.000757172 0.000119926 0.00455314 0.00957102 -0.000608903 -0.00776221 -4.84523e-06 -0.00234934 0.000282151 0.00181521 0.00530417 0.00358115 0.0076929 0.0101031 0.00515464 0.000721649 0.00986084 0.00030476 0.00748549 -0.000990193 0.00488198 0.00512571 0.00796238 0.00414299 0.00437468 0.00114733 0.00134751 0.00756175 0.000562254 -0.002636 0.00868369 0.00207572 -0.00306423 -0.000702398 7.85498e-05 0.000922457 0.00515544 0.00621466 0.0028688 0.0030104 0.00842737 0.00268041 0.00721649 0.00587629 0.00787569 0.00231101 0.00680124 0.0028783 0.00433751 0.0081333 0.00717104 0.0123046 0.0118488 0.00662236 0.0123462 0.00304894 0.00418906 0.00168733 0.00777985 -0.000236941 0.000233075 0.00400683 0.00674814 -0.000631676 0.000660641 0.00610101 0.0028314 0.00191535 0.00422406 0.00309278 0.00525773 0.00237113 0.000829741 0.00755753 0.00329719 0.0100988 0.0115592 0.0142139 0.00486549 0.0112942 0.0124144 0.0118974 0.00370357 0.00350974 0.00673226 0.00373717 0.00337321 0.00207545 0.00812935 0.00337467 0.0112447 0.00891723 0.00587711 -0.000220472 0.00916034 0.00391529 0.00711073 0.00793814 0.00103093 0.00103093 0.000721649 0.00628948 0.00867806 0.00235749 0.0104468 0.00840368 0.00683627 0.00442657 0.00192963 0.00123311 0.0117408 0.00218687 0.00689139 0.00593969 0.000858388 0.00555507 0.00224666 0.00407487 0.00639055 0.00555807 0.00228384 0.0032978 0.00918369 0.00463918 0.00381443 0.00360825 0.00865979 0.000721649 0.00659794 0.00474227 0.0071134 0.00742268 0.00613166 0.0010086 0.00436275 0.00454464 0.00784171 0.00461275 0.00785607 0.00989221 0.0010322 0.0029155 0.00655853 0.00655286 0.00834109 0.00773775 0.00747332 0.00465124 0.00864145 0.0014887 0.00494845 0.00134021 0.00494845 0.00381443 0.00608247 0.00381443 0.00247423 0.00979381 0.00453608 0.00917526 0.0042268 0.00680412 0.00134021 0 0.00752577 0.000515464 0.0100168 0.0051914 0.00515464 0.00752577 0.00474227 0.00618557 0.000103093 0.00113402 0.00804124 0.00381443 0.00350515 0 0.0085567 0.00257732 0.00164948 0.0085567 0.00927835 0.00164948 0.00206186 0.00505155 0.000515464 0.0100103 0.0100799 7.97439e-05 0.00746219 0.00377139 0.007144 0.00534516 0.00921552 0.0042664 0.00605386 0.00423044 0.00904505 0.00569634 0.00119377 0.00917286 0.0072138 0.00663781 0.00531006 0.00012377 0.000206186 0.00896907 0.000103093 0.00381443 0.00659794 0.0071134 0.00206186 0.00555516 0.00380818 0.00962499 0.00483928 0.00137894 0.00179092 0.00891512 0.00959513 0.00606084 -0.000799738 0.0032697 -0.00188416 0.0104303 0.00888851 0.0020229 -0.000801223 0.00949399 0.00965335 0.00823778 0.00830238 0.0066191 0.00591358 0.00970253 0.00206186 0.000618557 0.00793814 0.00216495 0.00447292 0.00423076 0.00928018 0.0018989 0.00291194 0.000162001 0.00428067 0.00673424 0.0175228 0.00384679 0.0114126 -0.00422215 -0.00711437 -0.0107935 -0.00706935 -0.00620284 -0.00900606 0.00224958 -0.0036544 0.00467549 0.00331353 9.39325e-05 0.00479907 0.0076012 0.00211544 0.00958763 0.00628866 0.0043299 0.00539464 0.00923575 0.00276797 0.0171493 0.0193044 0.0121279 0.0330872 0.0139513 0.039245 0.0177387 -0.00216514 0.0144275 -0.00404494 -0.0274404 -0.036227 -0.0307707 -0.0202576 -0.0188354 -0.00525573 -0.00388259 0.000127715 0.000434673 0.00620086 0.00680121 0.00869395 0.00815114 0.00505155 0.00123711 0.00754479 0.00209313 0.0106087 0.0391851 0.0295445 0.0169446 0.0144532 -0.00804236 0.00723162 -0.0139461 -0.0125185 -0.00134185 0.00304243 0.00571408 -0.0398053 -0.0359972 -0.0312613 -0.0221299 -0.0194966 -0.00741047 -0.00266322 -0.00205789 0.00427394 -0.00080718 0.00795708 0.0065049 0.00412371 0.00237113 0.00397891 0.0105862 0.0123837 0.0163367 0.0160144 0.0258281 -0.000542597 -0.0122757 0.0465983 0.0370946 -0.0237776 -0.031138 -0.00432939 -0.00701722 -0.0355288 -0.0348771 -0.040307 -0.0320132 -0.020666 -0.0114991 -0.0110196 -0.000396915 0.00342642 0.000514036 0.00729059 0.000566067 0.00814486 0.00094658 0.00680912 0.00944736 -0.000917914 -0.012072 0.0161391 0.0004854 -0.0191853 0.00611002 0.0503133 0.0452584 -0.0138526 -0.0460983 0.00628022 -0.0117325 -0.028796 -0.0440767 -0.0425688 -0.050012 -0.0302571 -0.0226558 -0.011858 -0.00689799 -0.00141992 -0.00202306 0.00771961 0.00742361 0.00212565 0.00646262 0.00831132 0.00338282 -0.00500308 -0.0104042 0.00417413 0.018307 -0.00993539 0.0205101 0.0663112 0.0312621 -0.00503342 -0.0332855 0.0288203 0.0138724 -0.0415098 -0.0421376 -0.0480805 -0.0369808 -0.0328399 -0.0240866 -0.0164645 -0.00963438 -0.00200964 -0.00159444 0.00152693 0.00557391 0.00247458 0.00596515 0.00862135 0.0101963 -0.000180922 -0.0191834 -0.00157689 0.0270147 -0.00177034 -0.0137222 0.0207248 0.0439612 0.00888465 0.0208042 0.00818651 -0.00666324 -0.046715 -0.0329456 -0.0311918 -0.0295385 -0.0218088 -0.0187207 -0.00654594 -0.00197108 0.00305387 0.00615869 0.00795592 0.00945818 0.00608247 0.00561577 0.0107002 0.00312613 -0.00420901 -0.0125733 -0.0189125 -0.00995859 -0.0197621 -0.0477232 0.000494861 0.0451005 0.0792278 0.053821 0.0193279 -0.00880063 -0.034977 -0.0338981 -0.0349798 -0.0269661 -0.0178126 -0.013812 -0.00594123 -0.00350741 0.000475671 0.00143429 0.00210606 0.00426202 0.00752577 0.00643995 0.0095926 0.00289234 0.00935906 0.00314791 -0.0242036 -0.0415978 -0.0406364 -0.0518109 -0.00926992 0.0389752 0.0473703 0.0196727 0.0207871 -0.00277225 -0.0401387 -0.0468229 -0.0408213 -0.0221478 -0.00781915 -0.0117263 -0.0108818 -0.00838391 0.00112847 0.00206956 -0.000979689 0.00660535 0.00103093 0.00298193 0.00598549 0.00844464 0.00617576 0.00245511 -0.01706 -0.0340407 -0.0098862 -0.0217425 -0.00119603 0.0288688 0.0395416 0.00617889 0.0172641 0.000465975 -0.00459545 -0.0314914 -0.0250104 -0.0237761 -0.0106712 -0.0135224 -0.0115081 -0.00313408 0.00309842 0.0127913 0.00716897 0.00545459 0.00371134 0.0086994 0.00568268 0.0102125 0.0116679 -0.000690505 0.000792691 -0.0117155 0.00541454 0.00638673 0.0140517 0.0207609 0.0132466 -0.0155526 -0.00314734 0.00177102 -0.00640837 -0.0142554 -0.0151124 -0.0169762 -0.0104397 -0.0112149 -0.0047923 0.00416605 0.0110626 0.0178424 0.00534931 0.00220535 0.00927835 0.00281713 0.00171473 0.00586793 0.0110903 0.00853906 -0.00141277 -0.00283999 0.0230688 0.0413271 0.0219497 -0.0155474 -0.0227947 -0.00737174 0.0245852 -0.00695416 -0.020981 -0.024889 -0.0193171 -0.0127844 -0.00397446 -0.00494871 0.00345612 0.00777584 0.00978503 0.0154029 0.00980564 0.00619173 0.00762887 0.00859215 0.00358536 0.0135106 0.00635194 0.00303601 0.00184939 0.00445546 0.0128719 0.0217883 0.00300505 -0.0398342 -0.0281991 0.00117554 0.0121726 -0.00425917 -0.0275455 -0.0447384 -0.0384259 -0.030673 -0.0103546 -0.000139085 0.00694201 0.00836157 0.0210653 0.0301539 0.0220459 0.00485616 0.00917526 0.000945879 0.00556942 0.010049 0.00416596 -0.00198332 3.22246e-05 -0.00288669 0.00103786 0.022532 0.0116758 -0.0407401 -0.0462967 -0.0105445 0.0397594 0.0116409 0.0140478 -0.0347123 -0.0200932 -0.00816573 -0.0086463 0.0154816 0.018572 0.0193478 0.0258516 0.0307978 0.0160343 0.00793024 0.00804124 0.0095935 0.000271349 0.0069658 -0.00301109 -0.0140551 -0.0100449 -0.0123224 -0.00675353 0.0112625 0.00330204 -0.024235 -0.0297121 -0.00847777 0.0466762 0.0289402 0.0220842 -0.0204238 -0.0140537 -0.00894969 0.00361072 0.0240324 0.0241488 0.0109817 0.0185484 0.0233719 0.0112745 0.00361344 0.00195783 0.00371134 0.00391396 0.00557367 0.00688259 -0.00536991 -0.0151997 -0.0146141 -0.0217308 0.00586782 -0.000403482 -0.0296432 -0.0301693 -0.0155531 0.0233252 0.0332617 0.0203585 0.0142575 -0.000130492 0.00118853 0.00518029 0.0287736 0.0284251 0.0124578 0.0216241 0.0205299 0.00444859 0.00193836 0.00556701 0.00441296 0.00959429 0.0024795 0.000471461 -0.010652 -0.0155118 -0.0100448 -0.0360157 -0.000293687 -0.016502 -0.0153784 -0.0216344 -0.018713 0.00680414 0.0203846 0.0388863 0.00918165 -0.0109612 -0.0200119 -0.0048726 0.0109375 0.0179338 0.0152839 0.0230626 0.0279955 0.0105303 0.0020773 0.00907216 0.00482142 0.00934211 0.0100597 0.000436621 -0.00402434 -0.0113398 -0.0100806 -0.0219554 -0.0061841 -0.00164051 -0.0120116 0.00249539 -0.0137587 -0.00875982 -0.0177274 0.0206419 0.0195927 0.0062553 -0.0164023 0.00832707 0.0117174 0.00776181 0.00545028 0.0102025 0.00515548 0.0119411 0.00793814 0.00889237 0.000936082 0.0106763 0.00416675 0.00564275 -0.00278665 -0.00604854 -0.00835036 -0.0125706 -0.00523872 0.0125111 -0.0026994 -0.0110504 -0.0333256 -0.00691256 -0.0370656 -0.0163064 0.00815557 0.0193354 -0.000369746 0.0207772 0.00840645 -0.00862175 0.00723157 0.00858345 0.00916286 0.00341679 0.00371134 0.00167505 0.0021732 0.00155808 0.00621246 0.0042856 0.00638929 0.0026642 -0.00538224 -0.00352065 -0.00615379 -0.002405 -0.00718534 -0.0188286 -0.0319044 -0.0109647 -0.00654444 -0.0533317 -0.0231652 0.0233264 0.0289713 0.0410242 0.0133295 -0.00403917 0.00569434 0.00162716 0.00531438 0.00352614 0.00319588 0.00824742 0.00340206 0.00197468 0.00501285 0.00480908 0.00771806 -0.000334185 0.00305034 0.00442506 0.00357969 0.00134466 0.00362635 -0.00643883 -0.0181989 -0.0383592 -0.0208356 -0.0504881 -0.0276446 0.00178478 0.0260389 0.0515917 0.0226721 0.00323264 0.00400353 0.0026988 0.00155866 0.00257749 0.000721649 0.00845361 0.00381443 0.00923955 0.00141997 0.00677969 0.00551204 0.0065591 0.00659993 0.000618353 -0.00741601 0.000140135 0.0118369 -0.00440295 -0.0238854 -0.0324234 -0.0232749 -0.0492042 -0.042948 0.00404998 0.0284181 0.0234745 0.0201081 0.00824306 0.00257571 0.00279131 0.00926824 0.00719361 0.00896907 0.00773196 0.000206186 0.00484365 0.00598577 0.00940002 0.00374039 0.00805119 0.00188313 0.00547423 0.00633699 0.00107006 -0.00355296 -0.00633961 -0.0168241 -0.0193053 -0.0187554 -0.033716 -0.0146721 -0.00431627 0.00200616 0.00319154 0.00591019 0.00611088 0.00564096 0.00372691 0.00289113 0.00577861 0.00742268 0.000309278 0.00247423 0.00608247 0.00803894 0.00802754 0.00557756 0.00338743 0.00737306 0.0048867 0.0060193 0.00862876 0.00923903 0.00274717 0.000364975 0.00245004 -0.000347185 -0.00881363 -0.00055985 0.0073397 0.0100083 0.00408128 0.00843472 0.00813602 0.000762206 0.00793686 0.00453608 0.00247423 0.00206186 0.00247423 0.00340206 0.00948454 0.00278351 0.00587629 0.000309278 0.00587053 0.00366479 0.00636816 0.00480796 0.00610841 0.00108384 0.00608986 0.00973996 0.000689506 0.006217 0.00770369 0.00102154 0.00285432 0.00145256 8.58268e-05 0.00306681 0.00782665 0.0088934 0.00175258 0.00340206 0.00969072 0.00969072 0.00298969 0.00721649 0.00680412 0.000515464 0.000309278 0.00597938 0.00329897 0.00628866 0.00134021 0.0042268 0.00505155 0.00278351 0.00895853 0.00616248 0.00917526 0.00484536 0.0057732 0.0101031 0.000927835 0.00319588 0.00608247 0.00886598 0.01 0.00608247 0.00969072 0.00123711 0.00463918 0.00649485 0.01 0.00938144 0.000927835 0.00804124 0.00639175 0.00773542 0.0086602 0.00188122 0.00874006 0.00690344 0.00307698 0.0104253 0.00129165 0.00842864 0.00280808 0.00519011 0.00428664 0.00170669 0.00478917 0.00505716 0.00688939 0.000840275 0.00331211 0.00257544 0.00969072 0.00835052 0.00371134 0.0042268 0.00958763 0.00350515 0.000412371 0.00437465 0.00259325 0.00681666 0.00207149 0.00404351 0.00436424 0.000667645 0.00606305 0.00257534 0.00709592 0.00836123 0.00676099 0.00204903 0.000564893 0.00495771 0.00739889 0.000900577 0.00230454 0.00787931 0.00108849 0.00935863 0.00889608 0.00455813 0.00701031 0.00824742 0.00804124 0.00587629 0.00753525 0.00744501 0.00941659 0.00313172 0.00137508 0.0013676 0.00976107 0.00829219 -0.000392188 0.00438048 0.00412484 0.00387305 -0.00194793 -0.00299399 -0.00259442 0.00362354 0.00306033 0.00698222 5.76837e-05 0.00678288 0.00827376 0.00214691 0.00519537 0.00540933 0.00722363 0.00391753 0.01 0.00402062 0.00735208 0.00279505 0.00492237 0.0097637 0.00939819 0.00294057 0.00125106 0.00371763 -0.0070298 -0.00487625 -0.00337892 -0.00577378 0.00126144 -0.00023151 -0.00819449 -0.00428731 -0.0041696 -0.00247557 0.00033059 -0.00601973 0.0032757 0.00647428 0.00753884 0.000774064 0.00639707 0.00287315 0.00587629 0.00329897 0.00680864 0.000591282 0.00221962 0.00944088 0.00324687 0.00354346 0.00508681 0.00225939 -0.0179193 -0.016572 -0.0193694 -0.00965293 -0.0293898 -0.0334652 -0.0253458 -0.0355452 -0.0226998 -0.0309394 -0.0212924 -0.0112216 -0.00927558 -0.00398529 0.00454238 0.00685589 0.00488226 0.00307294 0.00783505 0.00103093 0.00763699 0.00721643 0.009535 0.00744412 -0.00381214 -0.00830532 -0.00707675 -0.0177546 -0.0269363 0.00285304 0.0248525 0.0122153 -0.0125461 -0.0127656 -0.00951181 0.0112633 0.0213731 -0.00856912 0.00487621 0.00263224 -0.0179133 -0.00778154 0.00423769 0.00706341 0.00156264 0.0019613 0.000413923 0.00630054 0.00607983 0.00958754 0.00846483 0.00118802 0.00998694 0.00848317 0.0218353 0.0214548 0.0331097 0.0443564 0.0376057 0.00806212 0.0144286 -0.00578437 -0.0126637 0.00539802 0.0250587 0.00583974 0.0275818 0.0210307 -0.00402085 -0.00683809 0.00391304 -0.0023558 0.00489785 0.010114 0.00488731 0.00301968 0.0106321 0.00581158 -0.00010951 0.00560333 -0.00817496 -0.015376 0.0209709 0.0145787 0.0603579 0.0238017 0.0292139 0.027767 0.023785 0.0722435 0.0465376 0.0353623 0.0258452 0.0120623 0.0297694 0.0293298 0.00904916 -0.00138637 -0.00171048 -0.00113113 0.00689314 0.00164256 0.00567113 0.0102899 6.99658e-05 0.00148287 0.00567272 0.0119893 -0.0142305 0.00307021 0.00828805 0.0070412 0.010047 0.00627242 0.00874163 -0.0183821 0.042656 0.0395267 0.0229971 0.00549379 0.0171594 0.0187903 0.0205329 0.0246845 0.0235336 0.00407262 -0.00390238 -0.0119169 -0.00438713 0.00319202 0.00402062 0.00980841 0.00494944 0.01068 0.0145835 0.00975634 -0.0193653 -0.0293704 -0.0154252 0.0207016 0.00380257 0.0527394 -0.0217072 0.0088081 -0.0447888 -0.018516 -0.0050149 0.000752372 0.00484171 0.0241863 0.0134002 0.0225016 0.00448012 -0.00592058 -0.0041112 -0.00857067 -0.00269484 0.00214334 0.00731959 0.00992525 0.0125644 0.00618489 0.00878036 0.0151873 -0.0091301 -0.0338707 -0.00577395 0.0296011 0.0375314 0.0639392 -0.00677241 -0.0642276 -0.115564 -0.0579112 -0.0332411 0.0155458 0.0348868 -0.00544012 -0.0103809 -0.0173126 -0.00554476 0.0030374 0.0136685 0.000871716 0.00387375 0.0044535 0.00927835 0.00438848 0.0031214 0.00715188 -0.00138406 0.00842664 0.000868116 0.04038 -0.00295728 0.0323019 0.0566204 0.0304158 -0.0538257 -0.142931 -0.0895256 -0.0401205 0.0178465 -0.000421985 0.0220635 -0.0286153 -0.0198674 -0.0294717 -0.0152687 0.00728737 0.00837943 0.00573536 0.00356747 0.00835434 0.00123711 0.00280896 0.00840161 -0.0016998 -0.0119866 0.0189724 0.021746 0.0253676 0.0259897 0.0736521 0.0894223 0.0227222 -0.0919657 -0.109706 -0.0737423 -0.0404559 0.0401419 -0.00340617 -0.0213158 -0.0416534 -0.00899741 -0.029211 -0.0242972 -0.00759264 0.00488952 0.00503557 0.00378259 0.00341677 0.00350515 